element,1,2,3,4,5,6,7,8,9,10,11,12,13,14,15,16,17,18,19,20,21,22,23,24,25,26,27,28,29,30,31,32,33,34,35,36,37,38,39,40,41,42,43,44,45,46,47,48,49,50,51,52,53,54,55,56,57,58,59,60,61,62,63,64,65,66,67,68,69,70,71,72,73,74,75,76,77,78,79,80,81,82,83,84,85,86,87,88,89,90,91,92,93,94,95,96,97,98,99,100,101,102,103,104,105,106,107,108,109,110,111,112,113,114,115,116,117,118,119,120,121,122,123,124,125,126,127,128,129,130,131,132,133,134,135,136,137,138,139,140,141,142,143,144,145,146,147,148,149,150,151,152,153,154,155,156,157,158,159,160,161,162,163,164,165,166,167,168,169,170,171,172,173,174,175,176,177,178,179,180,181,182,183,184,185,186,187,188,189,190,191,192,193,194,195,196,197,198,199
H,-0.225564569,0.17279915511608124,0.18337109684944153,-0.110730752,0.24751971662044525,0.6925342082977295,0.1173265129327774,0.46246856451034546,-0.033087015,0.067433663,-0.014749705,0.4879246652126312,-0.416724712,0.3461455702781677,0.5159202218055725,-0.017214758,0.010315143503248692,0.20602501928806305,0.506518543,0.4459245800971985,-0.205104634,-0.410586178,0.015619201,-0.12822859,0.039634228,-0.245491803,-0.073455706,-0.091449678,0.2034289538860321,0.14029042422771454,-0.124171682,-0.008109457,-0.361584991,-0.202096507,-0.13302891,0.057683315,0.066204838,0.03095139,-0.08259134,0.11977603286504745,-0.241579324,0.252226859,-0.080039367,0.016798611730337143,0.37380123138427734,0.33426809310913086,-0.165359408,-0.183205783,0.5269500613212585,-0.174506441,0.13383670151233673,0.1732770949602127,0.068356238,-0.284208208,0.34998345375061035,0.2167234718799591,-0.333123475,0.11866831034421921,-0.293065727,0.2339158058166504,0.3702559471130371,0.15043596923351288,0.5610674023628235,-0.034765646,0.16203522682189941,0.063039534,0.086964585,-0.290479213,-0.153870583,0.16553464531898499,0.19848494231700897,-0.316813558,-0.19778502,0.012712887488305569,0.22534793615341187,-0.335463256,-0.147738472,0.45365384221076965,-0.175796285,0.2512580454349518,-0.083543435,0.053200785,-0.159641564,-0.257758796,-0.097267069,0.11373702436685562,0.29886940121650696,0.6561954617500305,0.17389944195747375,-0.182248533,0.033786234,-0.109213039,-0.01524648,-0.140446216,0.061643116,-0.237469837,0.21834257245063782,0.049410813,-0.209734648,-0.031810261,0.2248097062110901,-0.083578371,-0.361679226,-0.07192108,-0.019018283,-0.303237975,-0.158301502,0.41712096333503723,0.2698127329349518,-0.099667102,0.096856058,-0.123684049,0.3818313181400299,-0.004944133,0.078963839,0.042512960731983185,0.4500473141670227,-0.154587552,0.029140247032046318,-0.179054469,-0.445035547,-0.017699374,0.0951901,-0.090108216,-0.104698621,0.21750745177268982,-0.39712292,0.1359909623861313,0.23515255749225616,0.16904020309448242,-0.069424771,-0.135909498,-0.216416866,0.13807155191898346,-0.142763272,-0.286646485,0.074520461,-0.24028039,0.062309962,-0.547808528,-0.119401753,0.010721174068748951,-0.186155975,-0.036882039,0.077963762,0.1322624832391739,-0.03760631,0.4138103723526001,0.11091409623622894,-0.012462858,-0.018916262,0.5455490946769714,-0.434268713,0.10403309017419815,-0.21912457,-0.050031472,0.3159395158290863,-0.194297165,0.2790384590625763,0.1489688605070114,0.7674955129623413,-0.316452742,-0.288299918,-0.059683416,0.038013592,0.15745149552822113,0.001954,-0.187446028,-0.276134908,-0.294362634,-0.01005605,0.015101375058293343,-0.602130294,-0.216899201,-0.246785551,-0.026637644,-0.085983835,0.21125443279743195,-0.32027781,-0.346157908,0.049389016,0.2708849310874939,-0.114502266,-0.041315313,-0.011314457,0.18266771733760834,-0.030316703,0.12218926101922989,-0.068605185,0.5069918632507324,-0.161277428,-0.218429089,0.043226372450590134,-0.16219683,-0.001822392,-0.070742227,0.17833055555820465,0.19925960898399353,0.071768343
He,0.11583089083433151,0.12513667345046997,0.2622408866882324,-0.150114998,0.17652179300785065,0.7350883483886719,-0.296841979,0.4258027672767639,-0.190755635,0.2248864471912384,-0.02866005,-0.009958792,-0.322152704,-0.185612485,0.043927461,-0.182410702,0.019258027896285057,0.040914871,0.7133639454841614,0.19383876025676727,-0.473172009,0.13103830814361572,-0.124683976,-0.143111393,-0.154551581,0.12874451279640198,-0.241488859,0.33713007,0.21529856324195862,-0.145917311,0.060231033712625504,0.2864658236503601,0.055049066,-0.46615991,-0.025566043,0.36729666590690613,0.2223414033651352,0.11861401051282883,-0.237784669,0.34843897819519043,-0.249457583,0.27168071269989014,-0.205795631,0.11054448038339615,0.1781894862651825,-0.184723839,-0.145391911,-0.295727164,0.5039616823196411,-0.358516067,-0.504391432,0.4421868920326233,-0.088007577,0.22524209320545197,0.3516758978366852,-0.211154491,-0.40005967,0.051720600575208664,-0.373739243,-0.217321485,0.5581350922584534,0.39261770248413086,0.6058470010757446,-0.035236187,0.27292850613594055,-0.059441499,0.035031181,-0.280653894,-0.102943636,0.24609676003456116,0.20624883472919464,-0.264086306,-0.141976938,0.001087012,-0.16633682,-0.574165523,0.066898376,0.4673345685005188,0.15889714658260345,-0.048620027,-0.598701239,0.19941459596157074,-0.072252303,-0.600962281,0.001633948,-0.380399704,0.3027391731739044,0.067554362,-0.092638396,-0.056111556,-0.086679816,0.043122783,0.055210665,-0.31008777,-0.254823774,-0.165475398,0.467539907,0.11880611628293991,-0.067066371,0.1365818828344345,0.31878799200057983,0.13511687517166138,-0.214270383,-0.271749437,-0.02759338,-0.286547899,-0.060011271,0.039851677,0.3044619560241699,-0.559343457,-0.006217216,-0.247062579,0.34801146388053894,-0.179581359,0.3379936218261719,0.051689465,-0.295477271,-0.193575919,-0.088828892,-0.391050816,-0.056243196,-0.310702533,0.15042133629322052,0.1444074958562851,-0.109224051,0.080044523,-0.843027115,0.2646922469139099,0.2851577401161194,0.3040402829647064,0.066172831,-0.396111071,0.099308819,-0.028123783,-0.054821443,-0.062024567,0.6697912812232971,-0.087521017,-0.318754524,-0.066675618,0.11254023760557175,-0.172211811,-0.127117991,-0.181329533,-0.450625241,0.2437138557434082,-0.144312277,0.22225601971149445,-0.127531514,-0.089520119,-0.338901699,0.5558528304100037,-0.43288821,0.023463936522603035,-0.282434791,-0.374976188,0.6021862030029297,0.051570188254117966,0.6193156242370605,0.10931050777435303,0.6989884376525879,-0.066166088,-0.107538655,0.19889776408672333,0.10986483097076416,0.16405583918094635,-0.104608908,-0.403429478,-0.324166596,-0.059504442,-0.170830339,0.1354096382856369,0.15704286098480225,0.34336695075035095,-0.224106088,-0.233755857,0.6480838656425476,0.23122982680797577,-0.353783756,-0.616699517,-0.078750633,0.44746991991996765,-0.282050639,0.22605569660663605,0.12649636,0.2672760784626007,-0.342337489,0.12819254398345947,-0.023115559,0.087542638,-0.418238491,-0.041772913,-0.273535728,-0.029460939,0.14585551619529724,-0.002873174,-0.283715785,0.074093446,-0.045792058
Li,0.15979516506195068,-0.050667379,0.12565790116786957,-0.376452297,0.5976265668869019,0.6632367968559265,-0.013584392,0.15348182618618011,-0.343092144,-0.441820562,0.094656467,-0.086248435,-0.773611784,0.26392391324043274,0.17769178748130798,-0.268912256,0.10538798570632935,0.30342409014701843,0.3957293629646301,-0.019155048,-0.541145861,-0.285061747,0.088342935,-0.236408025,0.12547995150089264,0.16700096428394318,0.030908786,0.43602997064590454,0.074955828,0.039962936,-0.049548503,-0.059848007,-0.035205819,-0.298612773,0.15634092688560486,0.079135478,-0.130350828,0.22062820196151733,0.046272192150354385,0.6224278211593628,-0.188320696,0.21422693133354187,0.016353897750377655,-0.277513087,0.090197399,-0.313995779,0.15327371656894684,-0.653631151,0.24167610704898834,-0.147201926,0.025538804,0.001755088,0.063428767,0.2898256778717041,0.5190944075584412,0.3736661970615387,-0.287289202,-0.274845362,-0.170098424,0.35590583086013794,0.28838875889778137,0.16290885210037231,0.5561171770095825,0.071865112,0.4483233690261841,-0.299596697,-0.159590796,-0.097552665,0.41513967514038086,0.3133053183555603,0.3392806351184845,-0.420210391,-0.059421171,0.13115979731082916,-0.442119628,-0.186624676,-0.11074505,-0.245910794,0.2688473165035248,0.1493295580148697,-0.092630826,-0.261668414,0.21028928458690643,0.44058796763420105,0.12599621713161469,-0.092529997,0.4163212478160858,0.1937728077173233,-0.104630694,0.054558791,-0.090214223,0.098029628,-0.142509446,0.1751936674118042,0.2302454113960266,-0.032882947,-0.185415477,-0.273297161,0.057901651,-0.065994106,0.095963903,-0.298550755,0.30898547172546387,-0.254456252,0.24725346267223358,-0.348409414,0.6881991028785706,0.3889308273792267,0.028433214873075485,0.073675811,-0.091650963,-0.920567036,-0.069415331,-0.699642301,0.3538338541984558,-0.113155194,-0.216482133,0.5612876415252686,-0.406145602,-0.277411669,-0.37541163,0.2266779989004135,0.10852612555027008,-0.070903659,0.4428524971008301,0.48701345920562744,-0.466799527,0.4364537298679352,0.1561940461397171,0.18192704021930695,0.6267666816711426,0.24142999947071075,0.11459226906299591,-0.006291688,-0.44297269,0.2690074145793915,0.24895122647285461,0.037771747,-0.141824171,0.058256376534700394,-0.102076724,0.14625895023345947,-0.189239219,-0.374782503,-0.135442659,-0.08602991,-0.139343485,0.3443819582462311,-0.06465061,0.5107240080833435,-0.206386134,0.2707296311855316,-0.09892711,0.1472388356924057,-0.022758016,-0.165643215,0.6468678712844849,-0.077614427,0.45671746134757996,-0.029284112,0.30327746272087097,-0.128438413,-0.061563276,0.15252137184143066,0.3082658052444458,-0.270980954,-0.238774568,0.22005583345890045,-0.225823119,0.010659696534276009,-0.067528866,0.19736820459365845,0.074352898,0.12958942353725433,-0.126192257,0.14804328978061676,0.159474179,-0.273718774,-0.236861229,0.1049206480383873,-0.025697427,0.30394306778907776,-0.034166481,0.354544073,0.25468531250953674,-0.158160165,0.021243177354335785,-0.106899783,0.010396917350590229,-0.218597203,0.11445672065019608,-0.060554173,-0.169002488,0.23755963146686554,0.31044286489486694,0.045371588319540024,0.4367249608039856,-0.057980329,0.21475611627101898
Be,-0.162081629,0.085608944,-0.013885377,-0.713280797,0.32332125306129456,0.8926117420196533,0.19387464225292206,0.3171904385089874,-0.235320553,0.264111191,-0.026308401,-0.236689568,-0.402366042,-0.218981981,0.11282453685998917,-0.186848283,0.24356700479984283,-0.153718248,0.23223304748535156,0.014306193217635155,-0.519595921,0.017956348,0.015899965539574623,-0.390897661,0.026259055361151695,0.18864433467388153,0.14782728254795074,0.35872724652290344,-0.04383425,-0.057663523,0.12890829145908356,0.15365184843540192,0.02922143,-0.404930443,-0.178092703,0.11803723126649857,0.12029754370450974,0.11967771500349045,-0.486129254,0.5661824345588684,0.009569542,-0.215830684,-0.52008903,-0.34033069,0.17617212235927582,0.2721068263053894,-0.14381434,-0.907030463,0.082316421,0.040417227894067764,-0.364449233,0.083025284,-0.088432118,0.3993082046508789,0.9432663321495056,0.6589402556419373,-0.031310346,-0.430986255,0.09290044,-0.303343862,0.250069797,0.066705003,0.21856975555419922,-0.376688719,0.3099554479122162,-0.082488798,0.048501443,-0.294151098,0.19022057950496674,-0.062387604,0.15662620961666107,-0.297453731,0.31131500005722046,0.11419152468442917,-0.307075322,-0.259909421,-0.147436604,0.035473052,-0.611100614,0.082954064,-0.16468589,-0.176761329,-0.03143692,-0.251348644,-0.0565878,-0.340859711,0.14586716890335083,0.10550952702760696,-0.218052849,-0.446235538,-0.250232458,-0.202215761,0.094422325,-0.348855168,0.3447960317134857,-0.072519809,-0.128230959,0.37413015961647034,0.13139078,0.4125891625881195,0.4172055125236511,-0.065914951,-0.097481996,0.11361169070005417,-0.174694434,0.018078273,0.3224586248397827,-0.312980533,0.14974385499954224,-0.211447388,-0.108826794,-0.535459399,0.39898189902305603,-0.446193129,0.2962809205055237,0.085239425,-0.049409281,0.068449698,-0.516716301,-0.148287877,-0.361477494,-0.118620612,-0.162734717,-0.391179472,0.14994774758815765,0.1345919519662857,-0.73445642,0.47467318177223206,-0.037023455,0.5074618458747864,0.06179408,0.4546213150024414,-0.085827686,0.6845889687538147,0.32786235213279724,-0.043450393,0.16049954295158386,0.40986713767051697,-0.215545863,-0.052123204,-0.308395326,0.019741998985409737,-0.077730112,-0.399836034,-0.12176086,0.097336523,-0.326589793,0.3237895965576172,0.053712330758571625,0.11501491814851761,-0.457914233,0.49409258365631104,-0.148790821,-0.175310418,-0.404135257,-0.210228637,0.536342978,0.086875632,0.653113842,0.23629634082317352,0.5407698750495911,-0.577566743,-0.041755684,0.19380693137645721,-0.063624226,0.043534413,-0.313803107,-0.150984257,-0.138839364,0.032275431,-0.168337271,-0.286304832,0.16724783182144165,-0.079367161,-0.504000127,0.32740288972854614,0.2849230170249939,-0.285583377,-0.142805845,-0.148737624,-0.424694598,0.25256460905075073,-0.532994807,-0.158413276,-0.143405274,0.1662570834159851,0.24782930314540863,0.3552822768688202,-0.180796638,-0.28281951,0.17627599835395813,-0.115635864,-0.244952455,-0.15374741,0.1300998330116272,0.490355909,0.35797664523124695,-0.35060519,0.096704505
B,-0.056003418,0.18453416228294373,0.3697928488254547,-0.205376625,0.22651442885398865,0.42137134075164795,0.21627555787563324,0.12285204976797104,-0.389592409,-0.090540633,-0.018092105,0.3296767473220825,-0.71964097,0.038323779,0.41086310148239136,-0.05619185,-0.029989729,-0.071094431,0.13980190455913544,0.075095206,-0.332375675,-0.386511147,0.45674774050712585,-0.02662156,0.003865003,0.20359334349632263,0.25515538454055786,0.39678841829299927,-0.148502886,0.079581082,-0.013386404,-0.164167345,0.18065288662910461,0.19982050359249115,-0.244050577,-0.219903976,-0.137777418,-0.107970759,-0.017144624,0.2333468496799469,-0.090886384,-0.248612821,-0.082543574,-0.021504181,-0.083960526,0.15589621663093567,-0.302929223,-0.478466481,0.08504428,0.3906930983066559,0.3248063325881958,0.16840308904647827,-0.110844582,0.065673657,0.4774214029312134,0.54473877,-0.307467103,0.25813567638397217,0.038657278,0.21062584221363068,0.088943914,0.1938851773738861,0.29485246539115906,-0.052188594,0.006441178,-0.210794747,-0.294019848,-0.017096331,0.1527220755815506,0.19326694309711456,0.13109196722507477,-0.224889651,-0.148709834,-0.124349415,0.1720498502254486,-0.334164977,-0.372950643,-0.156913847,-0.401300818,0.30979400873184204,0.126367986,-0.096646287,0.044100355356931686,-0.104020827,-0.021400545,0.12891283631324768,-0.026725305,0.4831283986568451,-0.513200998,-0.198434189,-0.026752774,-0.067398049,-0.205817893,0.073229901,0.1461395025253296,-0.152708277,-0.127508059,0.068046637,0.15409882366657257,-0.038032189,-0.030203417,-0.062878571,0.1735668033361435,-0.327399194,0.008495936,-0.064798817,-0.229509622,0.17568254470825195,-0.098676927,0.39056313037872314,0.4448963403701782,-0.359685689,0.28133368492126465,-0.223474398,0.005119273,0.26875171065330505,0.052827429,-0.050800074,-0.04131975,0.06764704,-0.610252619,-0.017881703,0.21144621074199677,0.1643601804971695,0.2748847007751465,0.2915889024734497,-0.334580004,-0.102895267,0.13154742121696472,0.10872908681631088,0.03296734,-0.210689351,0.30475279688835144,-0.087956123,0.13149453699588776,0.059623957,-0.231304109,0.15007524192333221,-0.138351426,-0.128280476,-0.232505366,0.069817081,-0.086232081,-0.337173134,0.33391210436820984,0.09274894,-0.063597046,0.20439748466014862,0.21545922756195068,-0.149431095,-0.246513411,0.2761944532394409,-0.377628684,-0.290919393,-0.412565649,-0.032509886,0.4711534380912781,0.12383605539798737,-0.226013646,-0.228997126,0.8203032612800598,-0.419363588,-0.18489404,0.26727890968322754,-0.036579244,-0.225197822,0.033019281923770905,-0.260260344,-0.312042624,-0.151217654,0.18188798427581787,-0.376188308,-0.12341696,-0.281507522,-0.370647669,0.052004877,-0.116165347,0.067808472,-0.282809049,-0.219798237,-0.585141957,0.13405345380306244,-0.588121176,-0.007288754,-0.095051736,0.2730644643306732,0.2374717742204666,0.22452257573604584,0.021935409,0.342734158,-0.094236962,0.1388361006975174,0.43181881308555603,-0.265177608,0.14660070836544037,0.31936338543891907,0.084086157,0.13074322044849396,0.14809031784534454
C,0.085804246,0.062256131,0.085663877,-0.095164962,0.081686161,0.12646573781967163,0.054271378,0.14110586047172546,0.041622597724199295,0.1529536098241806,-0.255925477,0.40636271238327026,-0.340955883,-0.139434874,0.22358210384845734,0.079322957,0.033154603093862534,-0.057464916,0.4141919016838074,-0.047390014,-0.241893366,-0.251899987,-0.043139894,-0.253860474,0.16112791001796722,0.06897521,-0.055507518,-0.061589021,-0.133405536,-0.167658255,0.2673031985759735,-0.281381577,-0.24043788,0.039912737905979156,0.07561107,-0.008349547,0.042836982756853104,0.041014198,-0.030194856,0.20475497841835022,-0.236368656,0.029931429773569107,0.090621389,-0.097294241,0.036712948232889175,0.3938799500465393,0.061698481,-0.248495221,0.49625372886657715,0.037478201,0.27707311511039734,0.5596239566802979,0.010025507770478725,0.012401502579450607,0.292169452,0.3338088095188141,0.11713016033172607,0.056187313,-0.177442327,0.20903298258781433,0.3167791962623596,0.18924586474895477,0.32398688793182373,0.064708397,0.20470666885375977,-0.109100118,0.2734341025352478,-0.28899166,-0.025081065,0.3849683105945587,0.17859713733196259,-0.207414642,0.33952268958091736,0.1578804850578308,0.064518407,-0.382891446,-0.564072549,0.052633170038461685,-0.155186832,-0.013148524,0.2151414453983307,-0.122955427,-0.017849484,-0.047032446,0.014626311138272285,0.26086345314979553,0.20662720501422882,0.3942544460296631,0.040916726,0.061098568,0.068268627,0.1469479203224182,-0.202349916,0.031297464,-0.062191337,-0.122778483,0.082309507,0.17240872979164124,0.22141343355178833,0.047548990696668625,0.22885443270206451,0.009987617,-0.074686982,-0.302945673,0.027023717761039734,-0.148513317,0.27193477749824524,-0.054270837,0.22499246895313263,0.16624106466770172,-0.037076615,-0.225239918,-0.201832801,-0.160739154,0.035835169,-0.00800401,0.3059377372264862,0.2749650180339813,-0.547136188,0.239381805,-0.320496947,0.049301025,-0.247747138,-0.140520945,0.097892858,0.19646720588207245,-0.007561765,0.026772145181894302,0.3372962176799774,-0.118479848,-0.193745553,0.006034466,0.095714569,-0.289469063,-0.053821869,-0.309091121,-0.110888459,0.37076568603515625,-0.094391644,-0.180026561,-0.043371201,-0.051911902,-0.205465749,-0.286946058,-0.340105385,0.090201229,-0.348021984,-0.016136261,0.3009244501590729,0.16650836169719696,0.12296480685472488,0.2593233287334442,-0.089086808,-0.210597023,-0.262039125,-0.127120599,-0.058680274,-0.068617374,-0.032311525,0.11061248928308487,0.3047613203525543,0.023051680997014046,0.20003654062747955,0.15823379158973694,0.46764761209487915,-0.088390067,0.1175137609243393,-0.040587507,-0.124266684,-0.15392448,0.16376586258411407,0.19681578874588013,-0.163389921,0.1095883920788765,-0.296375036,0.13696947693824768,-0.043519177,0.13675132393836975,-0.267568976,-0.395678669,-0.05936753,0.075316653,-0.118008621,-0.010809635,-0.06342151,0.15272098779678345,-0.21182327,-0.084694512,0.1331178992986679,0.3080572187900543,-0.138211429,0.026629896834492683,-0.155362323,0.070044555,-0.171339765,0.18748776614665985,0.074486509,-0.076700129,0.16217735409736633
N,-0.08494693,0.38582098484039307,0.1279986947774887,-0.108745858,0.3794374465942383,0.5790536403656006,0.40256816148757935,0.38731470704078674,-0.155375242,0.21571685373783112,-0.453041077,0.17459602653980255,-0.57346034,0.13606323301792145,0.39959609508514404,0.093663856,0.2394082248210907,0.16591618955135345,0.6027982831001282,0.091778316,-0.23921369,0.12063096463680267,-0.073343962,0.1364269107580185,-0.163999155,0.077050045,-0.026140692,0.14071495831012726,0.2860940992832184,0.1496928632259369,0.2697589695453644,-0.02444084,-0.284462929,0.069780938,-0.19928804,0.15262004733085632,0.16143997013568878,0.1285698562860489,-0.634116948,0.40085652470588684,-0.038685542,-0.119720526,-0.059911452,-0.246030226,0.5271894931793213,0.475401908,-0.207866013,-0.150199875,0.41539064049720764,-0.177131712,-0.064924985,0.039157033,0.21810117363929749,-0.318702161,0.12332666665315628,0.2149011641740799,0.000859965,0.2973877191543579,-0.150958493,0.075931899,-0.097830154,0.24157629907131195,0.44149619340896606,0.24950039386749268,0.077368997,0.018361112102866173,-0.014714441,-0.291192204,0.046548616141080856,0.3936655819416046,0.13718271255493164,-0.196403965,-0.074768096,0.047758542001247406,0.3076004087924957,-0.525187075,-0.293852091,0.09092617,0.12770892679691315,0.28866755962371826,0.005124307,-0.067185521,-0.131612659,-0.268465012,-0.065015823,0.073180452,0.13957270979881287,0.2998558580875397,-0.135532826,-0.026371568,-0.076295145,0.11294928193092346,-0.09187796,-0.225589558,0.24516043066978455,-0.321245521,0.1516784429550171,0.092431396,-0.130779192,-0.169378087,0.12580837309360504,0.20043206214904785,-0.087947309,-0.17622368,-0.002265438,-0.057366226,0.4641094505786896,0.21090799570083618,0.12369006127119064,-0.127813384,-0.023867045,-0.299773544,0.19347448647022247,-0.116386101,0.17042821645736694,0.2373437136411667,0.002369369,0.21179276704788208,-0.107664809,0.4100141227245331,-0.754556954,0.1989654153585434,-0.099687576,0.051355626,-0.042563666,-0.036889106,-0.286337644,0.14178551733493805,0.045301065,0.025791135,-0.196981758,-0.353411973,0.2956594228744507,0.10913397371768951,-0.119563878,-0.313164175,0.054163094609975815,-0.128292605,-0.306169868,-0.042099658,-0.013030916,-0.154344633,-0.181255877,0.19408313930034637,0.1323787420988083,0.022984073,-0.259209692,0.11996626853942871,0.23094747960567474,0.046479031443595886,0.41032490134239197,0.040274448692798615,-0.171891034,-0.324899822,-0.15360716,-0.135600582,0.1345517784357071,0.19492654502391815,-0.139422402,0.15441018342971802,0.6806413531303406,-0.02857409,-0.175695688,0.4400050938129425,0.3453110158443451,-0.028518526,-0.159404144,-0.149609625,-0.118195474,-0.108701348,-0.303280085,-0.149739176,-0.234759122,-0.346646607,-0.150073439,-0.127241507,-0.011322595,0.16818469762802124,-0.318523884,-0.44294858,-0.32554388,0.268340528,-0.319105625,-0.001232596,0.007159152,-0.035258997,-0.244707495,0.27835512161254883,0.1319761574268341,0.22539417445659637,-0.144501865,-0.01898201,-0.231116429,-0.176306412,-0.066299953,-0.10946551,0.40132051706314087,0.089287177,-0.303839117
O,-0.272093713,0.046701155602931976,0.018852198496460915,-0.221773207,0.22179904580116272,0.508138895,0.050024088472127914,0.2533813416957855,-0.202729821,0.009970888,-0.079035178,0.41803452372550964,-0.467137158,-0.020906262,0.34434056282043457,0.24102233350276947,-0.011278711,0.30393388867378235,0.43953073024749756,0.017058594152331352,-0.383166969,-0.088125616,0.092025571,-0.000682358,0.030496571213006973,-0.378445685,0.16658075153827667,0.049159735441207886,0.090176471,-0.1944049,0.25153931975364685,-0.166522175,-0.142106503,0.11141404509544373,-0.275333434,0.13485875725746155,-0.067558452,-0.063415326,-0.553502619,0.6069961786270142,-0.020885574,0.21710233390331268,-0.130919158,-0.23238337,0.3130151629447937,0.37912145256996155,-0.003318729,-0.327557385,0.5428475141525269,-0.352499992,-0.112539962,0.17490644752979279,0.137766495,-0.289941132,0.6033706665039062,0.19763751327991486,-0.143469989,0.061965085566043854,-0.141250983,0.30836454033851624,0.3015618324279785,0.12466040998697281,0.37360718846321106,0.4395398795604706,0.12027877569198608,0.027726749,-0.307683647,-0.047615074,-0.26665765,0.096066266,-0.089199021,-0.370984286,-0.019177534,-0.067462042,0.2583293318748474,-0.403937548,-0.17225191,0.5997039675712585,-0.126598567,0.004016468,0.12203243374824524,-0.026798982,-0.401446372,-0.174267456,-0.115810506,0.3138629198074341,0.37549644708633423,0.1810230314731598,0.083203167,-0.300669461,0.013509719632565975,-0.030895324,0.11967460066080093,-0.328296214,-0.072768256,-0.411969632,-0.064921662,0.003559144,0.048121564,-0.029261747,0.2589985728263855,0.054067455,0.011653183959424496,-0.226969123,0.3049916923046112,-0.180670008,0.083140001,0.2199857234954834,0.24808967113494873,0.041171309,0.10855428129434586,-0.171058297,0.10961761325597763,0.096926861,0.43576303124427795,0.12067338079214096,0.069714122,0.2629086375236511,-0.080615096,-0.276440293,-0.531582296,-0.069815658,0.091515891,0.091727033,0.293098509,-0.026934529,-0.099939436,0.006402459,0.26753062,0.092130564,-0.095421195,-0.049102154,0.11359530687332153,0.050363074988126755,-0.145527974,-0.291192085,-0.004290757,-0.189346373,0.20938973128795624,-0.108727291,-0.00256279,0.005803055,0.1494051069021225,-0.334985375,0.051750094,-0.105554834,-0.115255661,0.3137133717536926,0.051238626,0.17278429865837097,0.055987004190683365,0.2314201,-0.395437568,0.051418062299489975,-0.341482341,-0.352611721,0.024686552584171295,0.1723809838294983,0.3936159312725067,0.18936952948570251,0.5338258743286133,-0.085991271,-0.305531859,0.098731786,0.25019776821136475,-0.206087127,-0.325523287,-0.059094831,-0.464538813,-0.06705673,-0.277375519,-0.126549736,-0.199988306,0.021961672231554985,-0.306447774,-0.140207276,0.28659552335739136,0.11197412014007568,-0.589360952,-0.451426834,-0.339299887,0.21313557028770447,-0.101321459,-0.146136731,-0.047406603,-0.0713792,-0.137084231,-0.125636861,0.094874546,0.3836463987827301,-0.112214126,-0.140788674,-0.297649771,-0.016243199,0.25386613607406616,-0.138298094,0.22483457624912262,-0.092935897,-0.036100786
F,-0.19983016,0.42733505368232727,0.48866742849349976,0.10350349545478821,0.045961004,0.7375375032424927,0.4558273255825043,0.3309572637081146,0.008819202,-0.223396331,-0.090555727,-0.273167849,-0.393611491,0.2176346331834793,0.6042772531509399,-0.600761652,0.32512161135673523,0.17833392322063446,0.10825024545192719,0.5336878299713135,-0.275844663,-0.285632581,-0.101855829,-0.394361883,0.6919167041778564,-0.111870855,-0.128041714,-0.080354042,-0.554192424,0.2141897976398468,0.2362091988325119,-0.319880992,0.039535355,0.13542892038822174,-0.260789365,0.00102212,0.29244276881217957,0.031645260751247406,-0.329200059,0.072084405,0.3225530683994293,0.12841977179050446,-0.005881115,-0.256260097,0.32527488470077515,0.041010059,-0.195403337,0.1163908988237381,0.4858943819999695,0.2537667751312256,-0.154760092,0.062163457,-0.196544126,0.089322783,0.49819090962409973,0.13744978606700897,-0.596941829,-0.087972112,0.148288295,0.314258337,0.42567768692970276,0.14226453006267548,0.5338246822357178,0.005264701,-0.219192564,0.21358107030391693,-0.026529383,-0.037571918,0.07317055,0.7937741279602051,0.19374047219753265,-0.47069037,0.16421756148338318,-0.093701236,-0.179700136,-0.49437207,-0.329389006,0.11015165597200394,-0.381128728,-0.00471735,0.2723052203655243,0.18511736392974854,0.1477476805448532,0.043584529,-0.302319288,0.15745218098163605,0.5011048913002014,0.3024621307849884,0.193806991,-0.092837214,0.20651783049106598,-0.252657592,-0.211807027,0.052800402,-0.01749819,-0.071844608,-0.131975278,-0.124364249,-0.146771401,-0.084097981,0.001621137,0.17013902962207794,-0.484842896,0.083134159,0.017711846,-0.294161171,0.12724794447422028,0.15732435882091522,0.080029242,-0.111673519,0.5864130258560181,-0.251632661,-0.015639991,0.1880810260772705,0.3610007166862488,0.072671577,0.28501197695732117,0.13604342937469482,-0.413618326,0.17137360572814941,-0.512919307,-0.086981535,-0.048706248,0.078926332,0.2626565098762512,-0.310992271,-0.013258516,0.094580024,0.11845804005861282,-0.038360983,0.2834008038043976,-0.310041457,0.3340607285499573,0.2058636099100113,-0.021153156,-0.245832503,0.14911121129989624,0.5698170065879822,-0.015110997,-0.080683149,-0.322354823,0.2230502814054489,-0.283407837,-0.080325529,0.30786794424057007,0.16154374182224274,0.016714103519916534,-0.02852552,-0.041260224,0.15490205585956573,0.082591578,0.22463037073612213,0.037956949323415756,-0.394100606,-0.11429581,-0.318716824,0.622157097,0.057522267,0.27443432807922363,0.016659660264849663,0.6153279542922974,-0.410785675,-0.105476759,0.6090769171714783,0.16291695833206177,-0.160562679,0.060803652,-0.5305987,-0.060437866,0.016450891,-0.394638419,-0.14776966,0.2511521577835083,-0.248482719,-0.208679363,0.09806814,-0.215609133,-0.014078989,-0.231298476,-0.318439931,-0.207286254,0.1747506707906723,-0.135143533,-0.050036013,0.14051386713981628,-0.217952862,0.24002423882484436,0.12900179624557495,0.4045271873474121,0.4003868103027344,-0.052554395,-0.060031388,-0.111549221,0.3876948356628418,-0.07602495,-0.289253235,0.12419014424085617,0.17853794991970062,0.046350431
Ne,-0.005339331,-0.117610313,0.3486177325248718,-0.334730297,0.12104084342718124,0.8799508810043335,-0.338287979,0.6939684748649597,-0.039343152,0.14157576858997345,0.2101432830095291,-0.087907739,-0.378488749,-0.203662381,0.08684314,-0.360050231,0.4645361006259918,-0.035596229,0.725581944,0.2797573506832123,-0.43366161,0.24239127337932587,0.29592546820640564,-0.000757919,-0.191896632,-0.130893245,-0.039559789,0.7930379509925842,-0.013580068,0.012999503873288631,0.07652878,0.1281902939081192,0.17454305291175842,-0.428931266,-0.025935579,0.24838489294052124,0.054819081,0.27451586723327637,-0.341628283,0.6731190085411072,-0.0410477,0.17680765688419342,-0.195877373,-0.028651377,0.468014657,-0.246514395,-0.133783981,-0.469211578,0.3632097840309143,-0.466761738,-0.627234936,0.6800917983055115,-0.063017182,0.36556553840637207,0.381057471,-0.126370907,-0.537786961,0.1205752044916153,-0.013802384,-0.499058723,0.10515839606523514,0.29940229654312134,0.5643032789230347,-0.184929773,0.040727213,-0.219101503,0.068988711,-0.135540977,-0.22113663,0.5566186904907227,0.1219622939825058,-0.215505272,-0.342001408,0.042742878,-0.157298774,-0.291058779,0.3013145625591278,0.4379520118236542,0.28105488419532776,0.13696902990341187,-0.43461585,0.027634975,-0.012136079,-0.483651042,-0.164319068,-0.503792942,0.42493757605552673,-0.163661465,0.038719971,0.065789022,0.088051617,0.053144965,-0.254538804,-0.152812824,0.13915272057056427,-0.191262856,0.33036404848098755,0.048627741634845734,-0.144076094,0.34708303213119507,0.3620418608188629,0.085728846,-0.256397963,0.14536042511463165,-0.031673323,-0.242943034,0.11516740173101425,0.5483949780464172,0.2706042230129242,-0.546562791,0.088427141,-0.308506608,0.4247828722000122,-0.187066227,0.3475034832954407,0.4889278709888458,-0.372491658,-0.16200529,-0.303702265,-0.153071463,-0.386260003,-0.672464609,0.16495709121227264,0.2727367877960205,-0.416794926,0.2787661850452423,-0.725494683,0.4398428201675415,0.2331790328025818,0.18915940821170807,0.18316034972667694,-0.378723264,0.2771380841732025,0.142757386,-0.296389371,-0.344851762,0.41520652174949646,-0.150991127,-0.050231103,-0.092914924,0.1699756234884262,-0.514569104,-0.276208162,-0.42386663,-0.07577081,0.066404991,-0.227557659,0.096540935,0.093791917,0.22381974756717682,-0.37647292,0.5421590805053711,-0.263944387,0.050757848,-0.226881742,-0.590337038,0.6763563752174377,-0.019776994,0.6505753397941589,0.13950587809085846,0.5126917958259583,-0.155399188,-0.132007003,0.27163422107696533,-0.038478035,-0.123057,-0.365053087,-0.608405948,-0.337847888,-0.435611337,0.008680444,-0.111465082,0.040904492139816284,0.13235624134540558,-0.117034681,-0.205576077,0.5170051455497742,0.5607489347457886,-0.265906453,-0.535255909,0.062731415,0.16817371547222137,-0.103392005,0.26651209592819214,0.029301779344677925,0.3048310875892639,-0.054015148,0.076565437,0.010387057,-0.156285807,-0.300180554,0.008945075,-0.337972432,0.3332745134830475,-0.038434103,-0.133713871,-0.261935741,-0.232459635,0.089739323
Na,0.3308722972869873,-0.102874793,0.32498490810394287,-0.260534257,0.2516992688179016,0.5412617325782776,-0.020463316,0.007442723,-0.334604561,-0.253071249,0.14616473019123077,0.11640547960996628,-0.49670881,-0.010852394,0.20799650251865387,-0.496588647,0.44523996114730835,0.39598289132118225,0.5051113963127136,-0.356540412,-0.514814734,-0.528134227,0.29233014583587646,-0.228402272,0.3096714913845062,0.002791271,0.3352571427822113,0.2995041608810425,0.26148784160614014,-0.378390342,-0.014242466,-0.403900445,-0.050226524,-0.072130807,-0.03309048,-0.141804457,-0.268099487,0.22495509684085846,-0.340771079,0.5906409621238708,-0.183207512,-0.019041276,0.031619474,-0.367371708,0.1611921787261963,0.060617186,0.28569477796554565,-0.518830836,0.049447142,-0.389760464,-0.234057635,0.085673779,-0.041546915,0.2820640802383423,0.7031183838844299,0.25476163625717163,-0.51184994,-0.270849526,-0.126833275,0.5289108753204346,0.3431021571159363,0.30719029903411865,0.4413736164569855,0.053281258791685104,0.2629232108592987,-0.260696828,-0.280075967,-0.332011431,-0.139221266,0.5193167328834534,0.19256071746349335,-0.352560639,0.044888716,-0.26538837,-0.353407234,-0.143174857,-0.029024351,-0.305235028,0.062889688,0.044326506555080414,-0.064286433,-0.113597274,-0.159252301,0.1675504893064499,0.20554952323436737,0.21101540327072144,0.7245497703552246,0.36531415581703186,-0.403625667,-0.155303136,0.15222764015197754,0.028785141184926033,-0.038979787,0.142434224,0.42904525995254517,-0.016377369,0.049805246,-0.280078262,-0.029888792,0.047800425,0.5987395644187927,-0.187304825,0.3908557593822479,0.11047777533531189,-0.153887555,-0.436315447,0.5221226811408997,0.18803758919239044,0.092664495,-0.012812923,0.2997705638408661,-0.623689055,-0.156499609,-0.318496168,0.1877789944410324,0.1405930370092392,-0.161440417,0.080454051,-0.061718646,-0.358663201,-0.557970941,0.000868763,0.2800469994544983,0.073359877,0.11662279814481735,0.2425055205821991,-0.323530346,0.094953753,0.079696573,0.44942981004714966,0.4462507963180542,0.1677725464105606,-0.039505698,-0.048959572,-0.458455831,0.36189892888069153,0.18285971879959106,0.076147027,-0.057181854,-0.218436822,0.17168323695659637,-0.050039493,0.10977152734994888,-0.368552506,0.1826063096523285,-0.145288989,-0.161240757,0.33306488394737244,-0.114172056,0.6989150047302246,-0.206092238,0.15480732917785645,-0.16062665,-0.198592827,0.1891489028930664,-0.06808158,0.31641191244125366,-0.060944684,0.4046245217323303,0.054650273,0.24001844227313995,-0.035935674,-0.266196847,0.19894149899482727,0.4065036475658417,-0.071051948,-0.282359987,0.14952366054058075,-0.205995962,-0.109276041,0.12018420547246933,-0.096817851,0.21197934448719025,0.2514326870441437,-0.04884791,0.35708361864089966,0.2042684406042099,-0.149125189,-0.090915523,0.11370263993740082,-0.506278276,0.6535642147064209,0.024768371134996414,0.5435380339622498,0.14726239442825317,-0.184806421,-0.020363744,-0.10602244,0.080355108,0.023393116891384125,0.17947755753993988,-0.361458749,-0.083936609,0.2388257533311844,0.25717201828956604,0.28493475914001465,0.4073176980018616,-0.39072153,0.025429485365748405
Mg,0.2961387038230896,0.17736569046974182,-0.220912755,-0.354795635,0.087858856,0.40493446588516235,-0.026061937,-0.189621449,-0.355671108,0.078618348,-0.162520126,0.016797841,-0.374482572,-0.157941937,0.086400017,-0.017407347,0.15149016678333282,-0.08183594,0.6666640043258667,0.066210382,-0.273918957,-0.296107709,0.085298859,0.043749727,-0.211350009,-0.398099065,0.21230495,0.18550734221935272,-0.124657542,-0.051727165,0.11624694615602493,-0.102493256,-0.068084076,-0.166322201,0.10886866599321365,-0.256981313,-0.291189551,0.3979845345020294,0.010929028503596783,0.5859313607215881,-0.125184417,0.428315133,-0.399930179,-0.48074317,-0.066988759,0.381465882,-0.336825609,-0.764490426,0.3991886377334595,0.079232506,-0.11457745,0.07561066,0.006467712,0.23417972028255463,0.4311080276966095,0.39497625827789307,-0.113171488,-0.44466567,-0.242027909,0.16911467909812927,0.24739138782024384,-0.269170254,0.011482607573270798,-0.198393524,0.37195682525634766,-0.17340748,-0.303428113,-0.300243497,0.4205174148082733,0.3802364766597748,0.13776233792304993,-0.376466393,0.03493258,0.11440431326627731,-0.245471388,-0.379758209,-0.305448741,0.17452330887317657,-0.161482126,0.21269288659095764,-0.011283444,0.024894014,-0.117000878,0.022975550964474678,-0.006442314,0.35444700717926025,0.042192406952381134,0.4609422981739044,-0.022704303,-0.257303447,-0.105323069,0.14844991266727448,-0.042569291,-0.141969234,0.19451741874217987,-0.005232698,-0.101814508,0.091450304,0.068945728,0.1025533452630043,0.5162661075592041,-0.095615037,0.6123433709144592,-0.082528822,0.19605594873428345,0.22482573986053467,0.21478737890720367,0.35020795464515686,0.082982063,-0.084587313,0.014949077740311623,-0.734987199,-0.010258312,-0.377095371,0.41756102442741394,0.3383169174194336,0.045210343,0.342730314,-0.474889576,-0.173858047,-0.32591328,0.3990657925605774,0.068760112,-0.012954328,0.3446989357471466,0.21449977159500122,-0.314663589,-0.006237135,0.1798982173204422,0.5687978863716125,0.3205296993255615,0.24267803132534027,0.14734919369220734,0.1415615677833557,-0.185590729,-0.239387304,0.002583366,0.39800843596458435,0.20171688497066498,-0.301125526,-0.301497906,-0.116813667,-0.055197496,0.062269825488328934,-0.014078479,0.073981918,-0.234314203,0.38213351368904114,0.13823693990707397,0.044220734387636185,-0.604941308,0.3218899667263031,-0.287464976,0.081371821,-0.16429925,-0.169545636,0.5167496800422668,0.13650844991207123,0.3715931177139282,0.31563591957092285,0.088045627,0.083094291,0.1306188404560089,0.20728598535060883,0.37235668301582336,-0.180527776,-0.06680616,0.13172666728496552,-0.406326234,0.17518137395381927,0.19205692410469055,0.074320599,-0.033720374,-0.001456433,-0.389194846,0.45104965567588806,0.46727555990219116,-0.470723093,-0.135716349,0.326134592,-0.505921125,0.20861917734146118,-0.041016616,0.19222725927829742,-0.112596318,0.039419141,0.020400932,-0.161071405,-0.064447075,0.1533617526292801,0.079052396,-0.086781867,-0.077844478,0.14835742115974426,-0.055292297,0.24305732548236847,0.5369184017181396,-0.213313162,0.1224885806441307
Al,-0.005658712,0.1574234515428543,-0.052879274,-0.327590913,-0.005130053,0.46342790126800537,0.053346872329711914,-0.23970817,-0.121383838,0.2270333170890808,-0.358855218,-0.035900593,-0.309181392,0.21141304075717926,0.12496542185544968,-0.053241178,-0.048901144,0.13128331303596497,0.584841788,0.17412301898002625,-0.231858194,-0.081244305,-0.01641096,-0.187795132,-0.296621025,-0.245416462,0.500531793,-0.085660182,-0.053103819,0.001537871,0.34052932262420654,-0.100126587,0.19783160090446472,-0.028665297,-0.067561552,-0.15220356,-0.236075863,0.2953546643257141,-0.376632094,0.090676025,-0.017019331,0.21439503133296967,-0.32328248,-0.045819391,0.23277239501476288,0.23545989394187927,-0.201159135,-0.676182449,0.4104185700416565,-0.05485861,0.039472219,0.15259921550750732,0.054668054,0.2047174870967865,0.6422821879386902,0.3697910010814667,-0.258114517,-0.409241468,-0.147048801,0.12184128910303116,0.050275545567274094,-0.344254345,0.031039617955684662,-0.277691007,0.17698562145233154,-0.226123318,-0.25399372,-0.305953294,0.25454631447792053,0.30113092064857483,0.031838756054639816,-0.197526306,0.078665189,-0.026660169,-0.057110488,-0.286663413,-0.433715105,-0.006843558,-0.187051028,0.12849004566669464,0.16082489490509033,0.19330547749996185,0.08925806,-0.041704535,-0.130036026,0.11766982078552246,-0.00962619,0.5162333846092224,0.043308899,-0.086484872,0.005508848,0.2825809419155121,0.002461161,-0.266572148,0.4431260824203491,-0.174215689,-0.01445882,0.097928964,0.047490593045949936,0.13903643190860748,0.3514121174812317,-0.256702214,0.26415297389030457,-0.388446808,0.054549794644117355,-0.009946289,0.5407621264457703,0.19789376854896545,0.06126282,0.13901521265506744,-0.002753713,-0.605881989,-0.055704053,-0.276403517,0.17576320469379425,0.12231523543596268,0.16733896732330322,0.033941582,-0.43012774,0.020594151690602303,-0.405637175,0.30330705642700195,-0.230573699,-0.057642143,0.3775678277015686,0.21411994099617004,-0.043412182,0.20278877019882202,0.3104371726512909,0.1173076331615448,0.10733441263437271,0.10144276171922684,0.10192324966192245,0.12763147056102753,0.073396586,-0.332357675,0.002420573,0.378788024,0.062299516052007675,-0.205805004,-0.121907592,-0.186621279,-0.063693047,-0.227781922,-0.031874958,0.12682601809501648,-0.152343541,0.26197242736816406,0.289565772,-0.019165518,-0.359827906,0.24913685023784637,-0.094239518,0.098957315,-0.096558437,0.085587248,0.2922646403312683,0.076227076,0.24632306396961212,-0.038677126,0.24841679632663727,0.25064173340797424,-0.089756787,0.4648633301258087,0.092382029,-0.167025745,-0.168900073,-0.094004102,-0.262857437,0.38400357961654663,-0.009028089,0.097777553,-0.200513691,0.1273718774318695,-0.392943919,0.321448416,0.19592416286468506,-0.256817758,-0.23326689,0.04295703,-0.331728369,0.17035500705242157,-0.019087663,0.084164806,-0.294997543,0.38720226287841797,0.038305108,-0.011485404,-0.202270746,0.003513282,0.11300599575042725,-0.024459315,-0.064507023,0.024529424,0.032181725,0.2234935313463211,0.3090851604938507,-0.144547552,-0.031933364
Si,-0.118671358,0.21799473464488983,0.071585283,-0.098054513,0.061822075,0.517244279,-0.215902954,0.10441137850284576,-0.184523627,-0.017534502,-0.389695555,0.3198336660861969,-0.444039077,0.1537955105304718,0.25051286816596985,0.16654004156589508,-0.14431563,0.17035236954689026,0.2908739149570465,0.2152436375617981,-0.155314997,0.088221498,0.154940665,-0.030303158,-0.105317578,-0.038834404,0.398226261,0.088766448,-0.008735305,-0.044344872,-0.106054194,-0.340330362,0.3679018020629883,-0.276759893,-0.037920572,-0.077642933,-0.168482795,0.095144145,-0.467794806,-0.027618919,-0.079247795,0.069028012,-0.165489078,0.012123445980250835,0.234326571,0.24731230735778809,0.070942499,-0.496546179,-0.04385522,-0.195966408,0.23891788721084595,0.242665097,0.085768551,-0.120139569,0.4839392602443695,0.15277354419231415,-0.077395067,-0.139086083,-0.140018478,0.13534799218177795,0.063841291,-0.010682574,0.2663767635822296,-0.116293833,0.024768585339188576,-0.385820895,-0.30402565,-0.435014516,0.051277857,0.2855894863605499,0.24630235135555267,-0.093813457,0.1849980354309082,0.17403936386108398,0.3026883602142334,-0.27546683,-0.645211816,0.058785509,-0.288976967,-0.309982985,-0.056425173,0.15571202337741852,0.002454897,0.096863613,-0.177256614,0.090324186,0.14589455723762512,0.7664007544517517,-0.038519856,-0.28960222,-0.239206553,0.081371494,0.029505286365747452,0.04712015,0.45188575983047485,-0.157737136,-0.034700703,-0.057411186,0.1640240103006363,0.33757272362709045,0.540638804,-0.079383031,0.21379223465919495,-0.057677373,-0.019424804,-0.008330847,0.5132076144218445,0.2849913537502289,0.1278465986251831,0.016383426263928413,-0.102096096,-0.668393612,0.23940642178058624,-0.137786925,-0.063179992,-0.109737106,0.017819913,-0.001808736,-0.30187428,-0.017877499,-0.630146027,0.000572293,-0.326717317,-0.022480169,-0.323551297,0.3975520730018616,0.017566381,0.14183133840560913,0.040771753,0.15737074613571167,0.14876987040042877,0.084015027,0.23056508600711823,0.3576045334339142,0.001534179,-0.310703784,-0.093249723,0.2718392014503479,0.16824674606323242,-0.3502509,0.039212044,0.031443078,-0.08124309,-0.395227045,0.22256897389888763,0.059537094086408615,-0.27566728,0.36051368713378906,0.28204652667045593,-0.025700731,-0.389641523,0.2314039170742035,-0.174022526,-0.088101372,-0.329059958,0.18894033133983612,0.10892251878976822,0.079990983,0.076963425,-0.157618538,0.2946469485759735,-0.096155502,-0.079521328,0.3262621760368347,0.18027064204216003,-0.144219086,-0.059601072,-0.08187297,-0.284109622,0.1437358856201172,-0.191185474,-0.092993863,-0.204742283,0.10302484780550003,-0.605049253,0.066316247,0.36890432238578796,-0.250971913,-0.288142294,-0.096836597,-0.238943532,0.13365142047405243,-0.206056625,0.047637526,-0.336699754,0.14153550565242767,0.17246395349502563,-0.120769605,-0.074789092,-0.259699285,-0.195137456,-0.008736298,0.004206067,0.21441000699996948,-0.17257376,-0.052412596,0.1974094808101654,-0.115976214,-0.040868234
P,0.080966927,0.080567226,-0.03951199,-0.152116597,0.073210314,0.6145725250244141,-0.00178366,-0.130305514,-0.239020213,0.090589762,-0.218552321,-0.027663644,-0.333286315,0.094016097,-0.040237863,0.018566403537988663,0.3294747769832611,0.031212697,0.640446663,0.032064319,-0.097393908,0.12969420850276947,0.18851697444915771,0.3214614987373352,-0.034946058,-0.033488061,0.39076706767082214,-0.186773896,-0.198751852,0.1550268530845642,-0.197392702,-0.147383332,-0.225731596,0.32743749022483826,-0.307005733,-0.018043298,-0.076233849,0.17682285606861115,-0.29764697,0.21228784322738647,-0.143414572,0.022008467465639114,-0.022773141,-0.301500231,0.12322565168142319,0.32689788937568665,-0.452681422,-0.289282113,0.2010917365550995,-0.129044101,0.1257956475019455,0.22376090288162231,0.01676699,0.10882574319839478,0.4041122794151306,0.4123919904232025,-0.169806436,-0.006312905,0.21473556756973267,0.33428171277046204,0.15476442873477936,0.18435335159301758,0.6052393317222595,-0.064717792,0.11898773163557053,-0.243769929,-0.14063102,-0.286941826,0.3079777956008911,0.5528194904327393,-0.075015001,0.040861889719963074,0.13868418335914612,0.12888044118881226,0.190729558,-0.474981308,-0.879630029,-0.256179124,-0.028985042,0.078965992,-0.353427291,0.13209261000156403,-0.118787423,-0.030149465,-0.331780881,0.39277535676956177,0.066041999,0.6703862547874451,-0.447954565,-0.290314257,0.051438674330711365,-0.263314664,0.059372883290052414,0.014244514517486095,0.2119092345237732,-0.052857097,0.3766482472419739,0.12827889621257782,0.10766446590423584,-0.315607548,0.23079833388328552,-0.025726696,-0.305185348,0.015480519272387028,-0.14444086,-0.103847839,0.1507275402545929,-0.324199528,-0.152804971,-0.07336235,0.46528932452201843,-0.27963233,0.19333747029304504,-0.279186636,0.161397785,0.071231462,-0.016152101,0.1843513548374176,-0.311786771,-0.026588485,-0.414127737,0.20977374911308289,0.21239854395389557,0.13877443969249725,-0.005005641,0.21491819620132446,-0.362885475,-0.089571975,0.20023693144321442,0.098565422,0.29457753896713257,0.093875997,0.4127429127693176,0.050740811973810196,0.027030235156416893,0.032915543764829636,0.12672483921051025,-0.013717667,0.096560493,-0.269442916,-0.073207408,-0.227270946,-0.028473854,-0.276002228,0.24380049109458923,0.089498267,-0.273489922,0.35473108291625977,0.016438717022538185,0.072083928,0.21060413122177124,-0.043140348,-0.155193478,-0.437289387,-0.312258989,-0.268050313,0.18980559706687927,0.3226682245731354,0.12087877094745636,-0.000835106,0.5733296275138855,-0.529592931,-0.129620001,0.18765516579151154,0.25922590494155884,-0.125432789,0.15627366304397583,-0.134951279,-0.233717844,0.063616075,-0.047496334,-0.041561838,-0.047522992,-0.296435475,-0.237638161,0.28412574529647827,0.036084637,-0.059409946,-0.644427776,-0.186308816,-0.735695481,0.16161778569221497,-0.168168321,0.053064067,-0.400324494,-0.198766574,0.1368805468082428,-0.171590745,0.11401761323213577,0.2702998220920563,0.001190244,-0.030164933,-0.128282636,-0.444679201,0.088381462,-0.035507299,0.16810254752635956,-0.079489373,-0.00086352
S,-0.160699382,0.15113002061843872,0.23573672771453857,-0.034929287,0.19029368460178375,0.5363771319389343,0.3915850520133972,0.1423429548740387,-0.163762152,-0.068794116,-0.30177334,-0.050676469,-0.345784396,-0.04648526,0.4105369746685028,0.092969671,-0.129588276,0.1264302134513855,0.27619192004203796,0.09833549,-0.179747835,0.026800804,0.24404726922512054,-0.038910799,0.073783681,-0.257293463,-0.165756777,0.23212875425815582,-0.018078128,0.035194468,-0.069392249,-0.396392345,-0.096570194,0.26557299494743347,0.026007755,-0.267716378,-0.301563978,-0.081607431,-0.307100743,0.31383758783340454,-0.077147365,-0.311247617,0.022041689604520798,-0.373833507,0.4851117730140686,0.3820687234401703,-0.157225326,-0.246415854,0.25379639863967896,-0.397745192,0.24940790235996246,-0.00667437,-0.05706539,-0.215222359,0.3232582211494446,0.3999381363391876,0.21623095870018005,-0.056244224,-0.43834123,0.6751696467399597,-0.018187081,0.40932440757751465,0.47244688868522644,0.060785934,0.047552764,0.37335076928138733,0.17791031301021576,-0.096624777,0.11960998177528381,0.5718263387680054,-0.230589941,-0.373536825,0.030854264,-0.291285753,0.2193594127893448,-0.547758996,-0.234741703,-0.33248657,-0.095008932,0.034026648849248886,-0.026688753,-0.148740709,-0.17091009,0.12803706526756287,-0.291243702,0.31042593717575073,0.32416653633117676,0.3742845356464386,-0.30823648,0.2475215047597885,0.2562958002090454,-0.079116635,0.14387185871601105,-0.194588751,-0.065069608,-0.322799444,0.27610570192337036,0.073249914,0.10685444623231888,-0.067414969,0.11233896017074585,-0.016469121,-0.304627359,0.2221517562866211,-0.008679882,-0.028713234,0.12573929131031036,0.4080257713794708,-0.065545544,-0.102979355,0.056719806,-0.638014376,0.12869544327259064,0.021214461,0.1888209581375122,-0.105858967,-0.023182806,0.005364042,-0.292988926,0.039985828,-0.384974718,0.13038937747478485,-0.229482189,0.16630907356739044,0.1487441509962082,-0.076713011,-0.383482248,0.379125714,0.062830463,-0.195345119,0.14329040050506592,-0.190361649,0.18668077886104584,-0.027863041,-0.019255094,0.2103138417005539,-0.013496241,0.008566795,-0.196271464,0.012908752,-0.169082806,0.030258615,0.020971229299902916,-0.176605597,0.33511367440223694,0.10597534477710724,-0.699062169,-0.005388469,0.14247755706310272,0.24514970183372498,0.19619262218475342,-0.13969177,-0.366818935,-0.321212173,-0.089417897,-0.199535877,0.013175172731280327,-0.23112683,0.1634642481803894,0.10707464814186096,0.6573059558868408,-0.105720066,-0.208194345,0.4715394377708435,0.024987211,-0.064740241,-0.023969881,-0.228634775,-0.346411973,0.093660593,-0.053781759,-0.126452565,-0.422034949,-0.094188072,-0.266242653,-0.000382545,-0.197522983,0.2808797061443329,-0.722171009,-0.046872031,-0.314054787,0.2553943395614624,-0.085065566,0.088805027,0.2108970582485199,-0.20141764,0.043082606,0.14508689939975739,-0.096772268,0.23915469646453857,0.05668493,0.055050205,-0.384493768,-0.0098786,0.025070805102586746,-0.023446921,0.2973095774650574,0.17992886900901794,0.17446590960025787
Cl,-0.107204042,0.1354365050792694,0.39777064323425293,-0.1697537,0.006748335,0.5548002123832703,0.13185823,0.2234886735677719,-0.424593896,-0.348595381,0.32793933153152466,-0.184243813,-0.525229692,-0.054664839,0.30710238218307495,-0.684370279,0.3577525317668915,0.3089648187160492,0.4245396852493286,0.293004572,-0.225948006,-0.326493889,-0.087500729,-0.114146106,0.052461781,-0.345570713,0.34689563512802124,0.1150689423084259,-0.22297886,-0.339386642,-0.102370486,-0.391769379,-0.013607101,-0.061440647,-0.31788671,0.050723154097795486,-0.343382806,-0.046535123,-0.302613676,0.607624352,-0.281955451,0.14366412162780762,-0.511832237,-0.131400943,0.4389166235923767,0.3351179361343384,0.42850232124328613,-0.267853379,0.48420318961143494,-0.383357853,-0.197392628,0.36753568053245544,0.016128793358802795,0.42092642188072205,1.0140563249588013,-0.029944234,-0.553943872,-0.423721015,-0.630895436,-0.208399579,0.468138725,0.3372935652732849,0.25368863344192505,0.11990050226449966,0.22958791255950928,0.22136354446411133,0.2975538372993469,-0.466338396,0.19589130580425262,0.3686991035938263,0.061111689,-0.343538046,0.086196505,-0.192633525,0.043950818,-0.553921461,0.3156052231788635,0.056300532072782516,-0.360467792,-0.103664584,0.4240497052669525,0.27677473425865173,-0.314744413,-0.226080686,0.12885798513889313,0.001242204,0.6551117897033691,-0.072100371,0.3999333381652832,0.039387017488479614,0.21293577551841736,-0.390351504,-0.159747824,-0.082629651,0.4175741970539093,-0.422171414,0.003280152,0.071328185,0.16823239624500275,0.12077978998422623,0.24121323227882385,0.044959884,0.12621855735778809,0.11476109176874161,0.000607011,-0.219657063,0.4870603680610657,0.4486687481403351,0.2759619653224945,0.072351858,0.6469026207923889,-0.04276428,-0.129373819,0.30804479122161865,0.672324002,-0.110653505,0.20005977153778076,0.058135867,0.13049642741680145,0.078787982,-0.422406167,-0.264337659,-0.015419874,0.379425973,-0.25755477,-0.092681438,-0.290721953,0.10452204197645187,0.003092202,0.15334416925907135,0.25965046882629395,-0.041686349,0.2121914178133011,0.111992747,-0.272504568,0.048936252,0.092442341,-0.001539695,0.3596596121788025,-0.321540147,-0.011846152,0.2437647581100464,0.3169730305671692,-0.17340745,0.28364625573158264,0.067810662,0.034863189,0.288026899,0.078731641,0.23868773877620697,0.062699631,0.18785518407821655,-0.112757087,-0.267836004,0.021789630874991417,-0.179222405,0.39344576,-0.066433094,0.40593042969703674,0.15712685883045197,0.5977013111114502,0.074076094,-0.156086251,0.6096145510673523,0.13631388545036316,0.068137541,-0.27298677,-0.204050094,-0.340897202,-0.070573144,0.2004469484090805,-0.354903996,-0.178619102,-0.020076741,-0.056181762,0.23236384987831116,0.2887220084667206,0.079060175,-0.351914972,-0.435322076,-0.516787887,0.5087988972663879,0.357800156,0.14299355447292328,0.29912468791007996,-0.163822338,0.011001893319189548,0.045789968222379684,0.261223167,0.26356086134910583,-0.128501087,-0.140218139,-0.446882486,0.12878204882144928,-0.040602975,0.1003049984574318,0.21861852705478668,-0.323155284,0.001806941
Ar,-0.294387639,-0.195511967,0.33242395520210266,-0.008006393,-0.180209413,0.7066981196403503,-0.288619101,0.1080465093255043,-0.072141491,0.2899063229560852,-0.043260545,0.3371480107307434,-0.350519091,-0.132714078,0.44352221488952637,0.000254045,0.18029722571372986,0.2599262595176697,0.8239136338233948,0.08270815,-0.180379897,0.036157548,-0.246071473,0.053035251796245575,0.008000541,0.13664449751377106,-0.152473763,0.55679214,0.22875262796878815,-0.255255342,0.13602682948112488,0.23194560408592224,0.031122701,-0.219645023,-0.057436358,-0.174028009,0.17656564712524414,0.004244488,-0.340699494,0.35683199763298035,-0.102785192,0.5129988789558411,0.11338497698307037,0.11158677190542221,0.7044355273246765,0.13891056180000305,-0.213756725,-0.288464338,0.7481574416160583,-0.20322974,-0.302517653,0.44588303565979004,0.18507042527198792,0.2811843752861023,0.47673672437667847,0.095156841,-0.339901119,0.18944108486175537,-0.422145277,-0.33058399,0.42729103565216064,0.3963721990585327,0.4229729473590851,0.02718024,0.5354956388473511,-0.263081312,0.016934746876358986,-0.48660624,-0.181676313,0.26414233446121216,0.021403646,-0.1917959,0.27542755007743835,0.070094012,-0.112420581,-0.506388724,-0.069606148,0.470859557,0.20650582015514374,0.011947395280003548,-0.211633131,0.1611471027135849,-0.141486675,-0.229089826,0.043171290308237076,0.15922825038433075,0.2518736720085144,-0.031782188,0.037286385893821716,-0.146033436,0.034868232905864716,0.036827750504016876,-0.007825406,-0.330495089,-0.119584598,-0.285151154,0.11235971003770828,0.1272883415222168,-0.092020646,0.027684297412633896,0.19356957077980042,0.12991629540920258,-0.21207431,-0.024658682,0.10212811082601547,-0.041080136,0.21040695905685425,0.5819788575172424,0.5702032446861267,-0.112683006,0.17706511914730072,-0.075175114,0.009377058,-0.161126018,0.6263046860694885,0.3653666079044342,0.002369691,-0.11260803,-0.160232365,-0.173713863,-0.400444567,-0.347418219,0.45045873522758484,0.14715859293937683,-0.481511563,0.17405138909816742,-0.846993387,0.001848521,0.18141092360019684,-0.057833612,0.022266702726483345,-0.018160317,-0.071887515,0.079151377,-0.482457668,-0.509367526,0.28197845816612244,0.017803257331252098,-0.068255141,-0.089486942,0.17638248205184937,-0.15107578,-0.108470455,-0.271375597,-0.565309286,0.18995143473148346,-0.112161584,0.12254133075475693,0.016425215,0.12362541258335114,-0.257078201,0.42218101024627686,-0.341009676,-0.083042376,-0.09942694,-0.179726094,0.22984129190444946,0.026277722790837288,0.2237730771303177,0.018906491,0.5950113534927368,0.15600812435150146,0.13466393947601318,0.5257358551025391,-0.110459,-0.262470454,-0.06031321,-0.278400153,-0.279245496,0.1187327429652214,-0.183809534,0.077557214,-0.124073893,0.112147257,-0.299150676,-0.366504431,0.588165283,0.3370717465877533,-0.051805455,-0.603960335,-0.062854089,0.2461400330066681,-0.349631876,0.024986923,0.2650037407875061,0.097156182,-0.244310349,-0.017958717,-0.0296643,0.2139289826154709,-0.405828685,-0.082840197,-0.462701857,0.28731903433799744,0.044469740241765976,-0.224669844,0.048146572,-0.302735418,0.030243124812841415
K,0.14635564386844635,0.1080179512500763,0.35954785346984863,-0.017594907,0.2849375009536743,0.5190574526786804,0.3096955418586731,-0.036014907,0.1565779596567154,0.3082885146141052,-0.116010025,0.21057872474193573,-0.397839814,-0.601620376,0.10804202407598495,0.11132767051458359,0.002901156,-0.127481282,0.5479815006256104,0.080435865,-0.313606709,-0.33579275,0.083572887,0.025416644290089607,0.3159169852733612,-0.074575819,0.24742242693901062,0.081958637,-0.120723464,-0.254005462,0.1806679368019104,-0.282574475,-0.17575784,-0.001392521,0.013895043171942234,0.010388840921223164,-0.028827962,-0.055786423,0.17635270953178406,0.19282928109169006,-0.291150689,-0.19240278,0.11908792704343796,-0.257782966,0.067294694,0.17165778577327728,-0.125247702,-0.361159176,0.31617286801338196,-0.110505275,0.12547509372234344,0.3833189904689789,-0.154187486,-0.00140583,0.32189908623695374,0.5691095590591431,-0.12972264,0.35701870918273926,-0.263492405,0.3190303444862366,0.041910984,0.15304343402385712,0.16259820759296417,-0.149729371,0.42612963914871216,-0.043721572,0.1315087378025055,-0.360182136,-0.23936826,0.3316234350204468,0.10322308540344238,-0.410867006,0.25640666484832764,0.10608243942260742,-0.060490735,-0.326998502,-0.61215961,-0.012058211,-0.15696533,0.037545241,0.061666615307331085,-0.127967104,0.15512241423130035,-0.209936664,-0.146874785,-0.030731117,0.040751490741968155,0.3768444359302521,-0.228239015,-0.025955256,0.18760821223258972,0.1041422188282013,0.04986107,-0.025244961,-0.063925654,-0.076513164,0.37591812014579773,0.23606011271476746,0.394286186,0.1400841474533081,0.2344280183315277,0.21260778605937958,-0.014752834,0.074834846,-0.042971838,-0.367392153,0.11593889445066452,-0.024430884,0.45406410098075867,-0.084118448,0.087017037,-0.137513131,0.21211910247802734,-0.047292214,0.008802064,0.055415735,0.2509128749370575,-0.148741007,-0.607462943,0.253560871,-0.238217935,0.022302728,-0.228564516,-0.072730541,0.11703306436538696,0.3421630561351776,-0.023627885,0.2193256914615631,0.1529851257801056,-0.038415637,-0.31646964,0.30758869647979736,0.19280532002449036,-0.22909984,-0.10590256,0.13369949162006378,0.1449340581893921,0.18041618168354034,0.051994625478982925,-0.198247612,-0.051579777,-0.028491478,-0.055560134,-0.22037223,-0.255833119,0.2979459762573242,-0.358085185,0.12613333761692047,0.20303891599178314,0.1981581151485443,-0.071256846,0.21303316950798035,0.06599582,-0.257239789,-0.159735978,-0.200762197,0.10610539466142654,-0.183637723,0.010306637734174728,0.095557481,0.021801386028528214,-0.069463633,-0.009856062,0.10843083262443542,0.3404282033443451,-0.10618443,0.15889644622802734,-0.183416054,-0.085013948,-0.251198739,0.219008669,0.09289673,-0.24281837,0.22878026962280273,0.072765149,0.4249471426010132,-0.071420662,0.2223639339208603,-0.382174194,-0.212966546,-0.104570895,0.15051394701004028,0.055023365,-0.134317935,-0.381660461,0.1294632852077484,-0.257288903,-0.061983213,-0.242267653,0.27820271253585815,-0.282829821,-0.200809091,0.2037130892276764,0.035677541,-0.096680038,0.023456962779164314,-0.058643971,-0.109392762,0.071478799
Ca,0.245716855,0.062862463,0.06321317,-0.270858765,-0.100728244,0.6270424127578735,-0.13478224,-0.190908074,-0.318191379,-0.020840416,-0.150623947,-0.057950437,-0.268136978,-0.15681085,0.20049265027046204,-0.089189909,0.34866708517074585,0.24982182681560516,0.4292120039463043,-0.276703686,-0.40201059,-0.372341931,0.21398501098155975,0.20101933181285858,0.010297652333974838,-0.220765084,0.27248725295066833,0.21539545059204102,-0.087999471,-0.234651402,0.2101980745792389,-0.201351538,0.2634848654270172,0.19824333488941193,-0.193639517,-0.207870245,-0.142787516,0.4288088381290436,-0.233585298,0.8347482085227966,-0.155473456,0.092767827,-0.275279701,-0.52810204,-0.097159579,0.5187169909477234,-0.028694665,-0.585888565,0.1323752999305725,-0.048808031,-0.112418026,-0.129461661,-0.021248527,0.12749098241329193,0.5904008150100708,0.44999217987060547,-0.332094043,-0.318379372,-0.177191094,0.44840630888938904,0.4191359579563141,0.12172417342662811,-0.050019179,-0.113404766,0.4481336772441864,-0.162281126,-0.53601414,-0.329906553,-0.071195036,0.33986547589302063,0.1815611869096756,-0.49276343,0.12551991641521454,-0.038449377,0.011055001989006996,-0.524012446,-0.301530659,-0.174111113,-0.238376066,0.11727739870548248,-0.078969248,-0.009494026,-0.290505469,0.26641613245010376,0.27240636944770813,0.3880680799484253,0.29991161823272705,0.5864435434341431,-0.490537345,-0.199069723,0.004984803,0.24303528666496277,-0.043125436,0.017766248434782028,0.09041255,0.029315439984202385,0.039372016,0.007474305,0.2781218886375427,-0.08306656,0.5278565883636475,-0.021935025,0.46512535214424133,0.3742936849594116,-0.115671955,-0.023125913,0.27893805503845215,0.4193166196346283,-0.10170868,-0.216633528,0.36345481872558594,-0.437925011,0.003153792,-0.260882288,0.21564503014087677,0.42320895195007324,0.068636484,0.3629084825515747,-0.294171751,-0.363222539,-0.29754135,0.21483230590820312,0.44903576374053955,0.1312914788722992,0.201794833,0.25287020206451416,-0.153741047,-0.178717092,0.093280777,0.7831534147262573,0.2896410822868347,0.22302116453647614,0.20443986356258392,-0.101228729,-0.0898766,0.036725827,0.094902985,0.14823640882968903,0.3781396448612213,-0.27146706,-0.095046215,-0.073072821,0.27244994044303894,-0.052163232,0.3053915798664093,0.07948117,-0.258665442,0.35428211092948914,-0.443504632,0.27608785033226013,-0.298331767,0.040675275,-0.204388797,-0.33328858,0.18416385352611542,-0.295230627,0.28760379552841187,0.021775150671601295,0.36005499958992004,0.059246067,0.23141129314899445,-0.309525698,0.048994891345500946,0.14597199857234955,0.4890156388282776,-0.29625389,-0.106936276,0.18137291073799133,-0.49346137,-0.085564308,-0.217954248,0.044848520308732986,0.029833086,0.025411829352378845,-0.370126963,0.5005027055740356,0.5695658922195435,-0.365298033,-0.106198065,0.056584931910037994,-0.617297232,0.3556743562221527,-0.112595469,0.34726405143737793,-0.197270662,0.024755770340561867,-0.099418625,-0.27774474,0.08724729,0.3090687096118927,0.24245856702327728,-0.195495486,-0.247064799,0.06042105,-0.131086171,0.24060243368148804,0.6305989027023315,-0.331592351,0.051559974
Sc,0.012907059863209724,0.34541139006614685,0.029010606929659843,-0.594656646,0.22472260892391205,0.6332711577415466,0.024854639545083046,-0.210554615,0.004824955,0.26447826623916626,-0.085091852,-0.274827182,-0.54595226,-0.05212025,-0.044912688,-0.239202589,-0.070879199,0.14535528421401978,0.5895659923553467,-0.129167348,-0.358283639,-0.148652703,0.3069746792316437,-0.165278792,-0.463505208,0.14956402778625488,0.32426169514656067,0.062268265,-0.182886735,-0.016442437,-0.149373561,0.10633551329374313,-0.063648134,0.15097484,0.045017745,0.2978011965751648,0.012311265803873539,0.28247204422950745,-0.194565892,0.7223407626152039,-0.259272605,0.30397510528564453,-0.231376767,-0.439567238,0.38379666209220886,0.1737787127494812,-0.172400445,-0.748477399,0.049993072,0.2714625298976898,-0.357249051,-0.381910801,-0.284439772,0.055833243,0.6665907502174377,0.3345727324485779,-0.261577398,-0.098129913,-0.057335012,0.037767388,-0.128088474,-0.236567542,0.1278744488954544,-0.521431029,0.30619463324546814,-0.028601587,-0.617378652,-0.526382446,0.21471168100833893,0.3484798073768616,0.13048972189426422,-0.327023357,0.26672205328941345,0.19759346544742584,-0.319822639,-0.046554748,-0.485132456,0.48843345046043396,-0.328349888,0.3337051570415497,0.24914436042308807,0.3633907437324524,0.10222513228654861,0.089885369,0.33289405703544617,0.1596681773662567,0.23475724458694458,0.46709132194519043,-0.313945323,0.053240448236465454,0.400309294,0.3584376871585846,-0.144801155,-0.398164332,0.5203004479408264,0.250151128,0.072801508,0.18223629891872406,0.037318148,-0.367872715,0.6390313506126404,-0.280448943,0.4210008680820465,-0.006755061,-0.037696157,0.051282182,0.7680903673171997,0.1439814269542694,0.1896776556968689,-0.160560936,0.13624350726604462,-0.485181689,0.4003000855445862,-0.151721328,0.3912816345691681,0.1466475874185562,-0.278431922,0.21403545141220093,-0.317800194,-0.501414716,-0.521691918,0.21563415229320526,-0.447601855,-0.153325334,0.5118788480758667,-0.044129401,-0.556570649,0.1227174922823906,0.030695363879203796,0.4787167012691498,0.1427127867937088,0.15309181809425354,0.14011318981647491,-0.168003008,-0.319483101,0.005033547,0.031666499,0.21084094047546387,-0.51181519,-0.281175882,0.057294812,-0.455690444,0.033010080456733704,-0.069548681,-0.401659191,-0.072506048,-0.034846123,0.062075357884168625,0.2517857551574707,0.29297712445259094,-0.520146608,0.3352435231208801,-0.052106343,0.10528994351625443,0.007606251,-0.433600068,0.8559361696243286,0.042132054,0.4321781098842621,0.12034211307764053,0.4880610704421997,0.003498914,-0.024866622,0.4054426848888397,-0.105078384,-0.151632443,-0.198790148,0.20279178023338318,-0.361100554,-0.128087088,0.153067484,0.3344687819480896,0.186489999,0.042607799,-0.633954525,0.34652289748191833,0.7036351561546326,-0.036975231,0.05504375,0.031204093247652054,-0.286349386,0.30227985978126526,-0.029714627,-0.019576102,-0.125240996,0.18770866096019745,-0.192714527,-0.219373345,0.1639496386051178,-0.162273735,0.2640394866466522,-0.392889261,-0.563041151,0.045816716,0.028456030413508415,0.049373552203178406,0.4549315869808197,0.11553727835416794,0.14766623079776764
Ti,-0.235951453,-0.038294848,-0.452757478,-0.16499798,0.2779444456100464,0.6169833540916443,0.1540151834487915,-0.035349905,-0.078311473,0.29520195722579956,-0.103630848,0.072756387,-0.443578988,0.1563248336315155,0.5996667146682739,0.1136687770485878,-0.215235978,0.094912276,0.4063476324081421,-0.100054987,-0.119681589,-0.139437616,0.2649706304073334,-0.004274915,-0.185548976,0.065765262,0.4107914865016937,-0.059873022,-0.141636878,0.057371248,-0.016696259,0.031740184873342514,-0.012604609,0.14903739094734192,-0.226107165,0.16051414608955383,-0.24580358,-0.030538393,-0.427327842,0.30897626280784607,0.029171090573072433,0.20822003483772278,-0.361694455,0.013111055828630924,0.30702754855155945,0.3540402352809906,0.028243264,-0.179357469,0.2783180773258209,0.27008718252182007,0.017141359,0.40198561549186707,0.10940561443567276,0.04984216,0.7151206731796265,0.32776638865470886,-0.275695413,-0.169749215,-0.074820735,0.096530527,0.13343501091003418,-0.061564371,-0.10473229,-0.372965723,0.13189391791820526,-0.631672859,-0.3112939,-0.012003741,0.23185747861862183,0.3688061237335205,0.01732488,-0.369820535,0.17831693589687347,0.14697369933128357,0.12953200936317444,-0.240849584,-0.578308225,-0.077517636,-0.324297816,0.013953345827758312,0.2908536493778229,0.28426414728164673,0.041397829,0.068156116,0.076933943,-0.116225421,-0.03044975,0.5997099280357361,-0.103366151,-0.081800632,-0.144428179,0.29050344228744507,-0.138411164,-0.329105109,0.18461525440216064,-0.206452683,0.11248256266117096,0.1408909112215042,0.22978822886943817,-0.09735588,0.3324602544307709,-0.0199215,0.3083830177783966,-0.536275029,0.067093261,-0.170166433,0.3729873299598694,0.2559434175491333,0.1814289093017578,0.12318751215934753,0.10426927357912064,-0.612143397,0.10606463253498077,-0.442432284,0.036225773,0.057594794780015945,-0.355025709,0.1821887046098709,-0.337815642,-0.242163777,-0.318594724,0.2530211806297302,-0.167696252,-0.171437263,0.20478373765945435,0.2847701609134674,-0.65621841,0.14202958345413208,0.4576171934604645,0.092264339,-0.04960775,0.002159962,0.19719098508358002,0.070452973,-0.147117227,-0.32443431,0.002435135,0.5040364861488342,0.202280194,-0.233633265,-0.13320449,-0.20072107,-0.020736353,-0.056557141,0.030250322073698044,0.20841476321220398,-0.317420959,-0.158413664,0.086069778,-0.142083541,-0.303544104,0.22842863202095032,-0.160538957,0.1832505464553833,-0.039657291,0.16830429434776306,0.3223945200443268,0.3045627176761627,0.16620609164237976,-0.072395116,0.12442347407341003,0.18759651482105255,0.10192276537418365,-0.017594339,0.337217778,-0.098701753,-0.375888318,-0.167483196,-0.359545976,0.35617414116859436,0.028177684172987938,0.039609864354133606,-0.137876421,0.2993104159832001,-0.391978979,0.22992083430290222,0.20733238756656647,-0.443659872,-0.137177482,-0.182760432,-0.391687334,0.22807924449443817,-0.162901506,-0.048637595,-0.079124011,0.16594111919403076,-0.059324719,0.2555730938911438,-0.111919582,0.07198444,0.22306156158447266,-0.191019475,-0.170088574,0.3073026239871979,-0.06204287,0.11114975064992905,0.29943612217903137,-0.181922019,0.14936169981956482
V,-0.005636168,0.010214183,-0.07636296,-0.286252737,0.20130345225334167,0.8776889443397522,0.050445929169654846,0.3218543529510498,-0.179882348,0.14336010813713074,-0.21165815,-0.34746483,-0.456924558,-0.133592173,0.3831489086151123,-0.052515786,-0.132763371,-0.153227463,0.6950649619102478,0.049633712,-0.017910616,7.198923412943259e-05,0.19749166071414948,0.08800602,0.1831788569688797,0.22499005496501923,0.060395405,-0.196419686,-0.267491728,0.030625405,0.16322660446166992,-0.406078279,-0.372828096,0.35533908009529114,-0.235672459,0.34288138151168823,-0.44027701,0.070704438,-0.209191173,-0.018923562,-0.014054365,0.18247421085834503,0.12047109752893448,-0.326300979,0.3764978051185608,-0.025667045,-0.147137329,-0.32006076,0.3365402817726135,-0.078688987,0.4181223511695862,0.094744161,0.23090557754039764,0.063822359,0.6466240286827087,0.2259032279253006,0.12998245656490326,0.2166927456855774,-0.336990088,0.11296297609806061,0.22083278000354767,-0.116500467,0.30151352286338806,-0.126398116,0.11082383990287781,-0.415341854,-0.063384466,-0.074223779,0.3075789511203766,0.5603234767913818,-0.001473654,-0.18095243,0.13744723796844482,0.21768739819526672,0.12099763751029968,-0.012659983,-0.713375509,-0.036781959,0.001886684,-0.150806844,0.6470266580581665,-0.181157529,-0.020501763,-0.215402707,-0.521557808,-0.142394409,0.1376408189535141,0.4265998899936676,-0.202580348,-0.35781154,0.29060035943984985,-0.01278756,-0.187267646,-0.101647161,-0.085166186,0.1319948434829712,0.14375972747802734,0.011606881394982338,0.323419988,-0.01169108,-0.064219974,-0.403744102,0.1612168401479721,-0.26570946,0.068187431,-0.287337869,0.058678716,0.13807331025600433,0.059358276426792145,-0.010033743,0.21350625157356262,-0.361081243,0.26735004782676697,-0.236592844,0.037710991,-0.097655587,-0.128349662,0.2899322211742401,-0.244288802,-0.038951412,0.030555713921785355,0.090604618,-0.193595499,-0.481110781,0.31508660316467285,0.13355009257793427,-0.069960341,-0.070648201,0.2755155861377716,-0.023522755,0.12194326519966125,-0.106636584,0.23017306625843048,-0.125808761,-0.282083273,-0.169365361,-0.170447037,0.23593255877494812,-0.04333235,-0.014677313,-0.122701325,-0.198900059,-0.026050461,-0.080134109,0.039664387702941895,-0.024259895,-0.245157987,-0.174390525,0.38897672295570374,0.2309698462486267,0.10667874664068222,0.007802947,-0.110354625,-0.28204295,-0.098732136,-0.023282843,0.2978275716304779,0.1521678864955902,0.1873137652873993,-0.140693888,0.8173901438713074,0.069725901,-0.009069448,-0.032306653,0.23436801135540009,0.004977173,-0.400221914,-0.355441153,0.194443941,-0.078810424,0.11827218532562256,-0.540522099,-0.089427903,0.067986354,-0.193120882,0.33454349637031555,0.06520205,-0.011762016,-0.519156873,-0.278252363,0.3778725862503052,0.059935145,0.066121988,-0.029872302,-0.046314243,0.1968797743320465,0.27612194418907166,0.049064543,0.10228216648101807,-0.080331668,-0.406145215,-0.054822978,-0.270526677,-0.085023738,0.1120724231004715,0.077453747,0.012626146897673607,0.35739055275917053,0.36241310834884644
Cr,-0.039976142,0.056319937109947205,0.12539593875408173,-0.447550446,-0.070832878,0.6837973594665527,0.13547277450561523,-0.08264184,-0.339967489,0.36250507831573486,0.3240622282028198,-0.004549331,-0.609319985,-0.17523095,0.29522863030433655,0.06172476,0.021739174,0.26923254132270813,0.30416929721832275,0.2578680217266083,-0.049761958,-0.130401731,0.32946449518203735,-0.607908964,-0.247455642,-0.018587155,0.1975589394569397,0.11591628193855286,-0.153556794,0.3156379759311676,-0.04603181,0.073165871,-0.014844929,0.2367708832025528,-0.08217717,0.1381147801876068,0.051297065,0.4372197985649109,-0.5380584,0.2556653916835785,-0.225108951,-0.20727253,-0.502137482,-0.231557369,0.15572009980678558,0.3406071066856384,-0.115515739,-0.280457228,0.5550087690353394,0.44525447487831116,0.064484581,0.13019247353076935,-0.076954782,0.003128874,0.6728232502937317,0.3064582645893097,-0.017563025,-0.173171878,-0.13604708,-0.084574334,0.028173972,0.06467849,-0.044157937,-0.258370131,0.017687526,-0.072749317,-0.538766503,-0.338078648,0.22260600328445435,0.5701099634170532,0.16151918470859528,-0.186669052,0.091727048,0.10881173610687256,0.056208894,-0.209293365,-0.403253704,-0.23370637,-0.172104746,0.074999362,0.20394964516162872,0.6267446279525757,0.031737965,0.16829466819763184,-0.172504857,-0.085604027,0.12494144588708878,0.3139472007751465,0.067179509,0.1616869419813156,0.16045910120010376,0.35528919100761414,-0.20754692,-0.334442079,0.3553638458251953,-0.434230179,0.5455384254455566,0.44889259338378906,0.21654093265533447,0.2909064292907715,0.068814948,-0.316031098,0.26973333954811096,0.003130479,-0.173660576,0.090416521,0.20567183196544647,0.14677667617797852,0.1692592054605484,0.19288545846939087,-0.005733674,-0.625520349,0.15275339782238007,-0.200843781,0.2429678589105606,0.4894125163555145,-0.053565625,0.18006625771522522,-0.546923041,-0.443477094,-0.37267521,0.013936361,-0.314991266,-0.10099227,0.24446314573287964,0.1616715043783188,-0.270846546,0.1804259568452835,0.48198407888412476,0.22978360950946808,0.096895926,0.005226908,-0.027827961,-0.149485305,-0.074657775,-0.031909715,0.026009542867541313,0.4326421916484833,-0.24236387,-0.43418321,0.016341144,-0.068454333,0.34722983837127686,0.20998066663742065,-0.163736194,-0.027996084,0.018172141164541245,-0.056568015,0.3243729770183563,0.055224735,-0.16285336,0.35335254669189453,-0.04167087,-0.211474523,-0.418444306,-0.075397462,0.4936259984970093,0.3816412687301636,0.052217233926057816,0.089679204,0.5195145606994629,-0.000812306,-0.252983958,0.013909647,0.38849779963493347,0.10442329943180084,-0.164802223,-0.087296352,-0.309121639,0.2790951728820801,0.070138007,-0.17321229,-0.08096233,0.17657409608364105,-0.274824679,0.22786833345890045,0.371191144,-0.227540269,-0.331980377,-0.089319363,-0.158990547,0.14963166415691376,-0.250559062,0.068559319,-0.181613982,0.1501282900571823,0.15062445402145386,0.11208439618349075,-0.054197371,-0.111554883,-0.116501994,-0.089726903,-0.275092959,0.087592676,0.022896729,0.5979911684989929,0.18397486209869385,-0.27778998,0.01919817
Mn,0.2060299515724182,0.43452897667884827,0.055839565,-0.500263572,0.1649804711341858,0.5867612957954407,0.28516313433647156,0.088005543,-0.240545377,0.23947098851203918,-0.293805093,-0.109980792,-0.48126924,-0.162802473,0.16123785078525543,-0.07618688,-0.114385702,0.2598072290420532,0.25349295139312744,-0.11653655,-0.007405573,-0.367558688,0.29426905512809753,-0.198833689,0.1705777794122696,-0.17715314,0.27588826417922974,0.16110113263130188,-0.118210994,0.14067906141281128,0.066844106,0.19691519439220428,-0.055733729,0.23029819130897522,-0.211872876,0.061357599,-0.025428187,0.536270022,-0.347223639,0.4769380986690521,-0.392596811,-0.018035198,-0.385205507,-0.539882481,-0.205417648,0.31108197569847107,-0.076339021,-0.392297238,0.2148243635892868,0.1525615155696869,0.00727265,-0.058045831,0.1008581593632698,0.075122081,0.4688974916934967,0.41507309675216675,0.1438497006893158,-0.155236483,-0.197558224,-0.008583121,-0.00296968,0.1258155107498169,-0.117638499,-0.092665695,0.24966947734355927,-0.230391502,-0.693146467,-0.479109257,0.23662549257278442,0.4330412745475769,0.4135739505290985,-0.350955516,0.19590693712234497,0.20555421710014343,-0.063808881,-0.7211321,-0.52295661,-0.282541722,-0.174981251,-0.069008075,0.11170227080583572,0.4979386627674103,-0.256055534,0.18730463087558746,-0.180724636,0.060536552,0.026678036898374557,0.38772663474082947,-0.014349889,0.1352868527173996,0.18804140388965607,0.33276647329330444,-0.310383499,-0.26633215,0.14114469289779663,-0.75832665,0.2787936329841614,0.4795476794242859,0.37202632427215576,0.2560122311115265,0.30258849263191223,-0.379076391,0.3670494556427002,0.28868594765663147,-0.213952869,0.14491453766822815,0.49695760011672974,0.2062353938817978,-0.045135926,0.14621984958648682,0.080953993,-0.600661039,0.2531043291091919,-0.290002346,0.36865878105163574,0.064620547,0.016064755618572235,0.2430526316165924,-0.506504297,-0.344172984,-0.515854001,0.24409882724285126,-0.034904972,-0.204199135,0.1527576744556427,0.19749809801578522,0.14481006562709808,-0.036219966,0.11632299423217773,0.3242987394332886,0.3068441152572632,0.28560125827789307,0.037358329,-0.100673772,-0.541135073,-0.085752264,0.14727668464183807,0.3095162808895111,-0.122497343,-0.165177405,0.010758407413959503,-0.067800656,-0.038770676,-0.041682363,-0.075613067,0.1111646443605423,-0.150230631,0.048201639,0.40706056356430054,0.220275879,-0.191820219,0.032852254807949066,-0.001186535,-0.162215918,-0.227797225,-0.135138527,0.09303502,0.096438371,0.16221441328525543,-0.102530979,0.3104153871536255,-0.376401782,-0.332199603,0.17670539021492004,0.074155629,-0.1379783,0.014739613,-0.132618785,-0.437696129,0.2526922821998596,-0.323479295,-0.082072593,-0.081499711,-0.157485098,-0.370155394,0.2668292820453644,0.36490342020988464,-0.482144952,-0.513454497,-0.125494957,-0.099855207,0.058126133,0.021557592,0.0752782,0.000930779,-0.01662682,0.27017736434936523,0.10911183059215546,0.088829152,0.072302267,-0.243124112,-0.080443524,-0.099829488,0.035161737352609634,-0.10219647,0.24643488228321075,0.47271034121513367,-0.203419313,-0.161435813
Fe,0.16102111339569092,0.12556737661361694,0.025423234328627586,-0.374611527,0.096781231,0.45792847871780396,0.052087072283029556,-0.10651131,-0.176940233,0.3324922025203705,-0.115427323,0.016810488,-0.54512006,-0.08035063,0.2528013288974762,0.12725141644477844,-0.152761489,0.24136874079704285,0.3383134603500366,0.044837058,-0.012877941,-0.251641929,0.19925382733345032,-0.322434604,-0.018150872,-0.172133505,0.27924254536628723,0.1131177544593811,-0.057627924,0.09447448,-0.023410808,0.13232499361038208,0.10787595808506012,0.16888529062271118,0.030037250369787216,-0.085220672,-0.296013325,0.33725759387016296,-0.421361238,0.45672425627708435,-0.338023186,0.085855044,-0.220086411,-0.18823503,-0.099660791,0.44095706939697266,-0.185101226,-0.364866406,0.25288528203964233,0.16403006,-0.15239498,0.23359587788581848,-0.134516701,0.10972584784030914,0.4163646101951599,0.4026043713092804,0.014356309548020363,-0.087426424,-0.177527875,0.05358877,0.040225457,0.2256450057029724,0.012575317174196243,-0.016022513,0.21390138566493988,-0.122683287,-0.665902436,-0.25761196,0.081002496,0.5146806836128235,0.10789122432470322,-0.145472556,-0.002729553,-0.131570652,0.11298345774412155,-0.453577816,-0.444962829,-0.266495526,-0.313930809,0.058804199,0.3013988733291626,0.35554739832878113,-0.193622693,0.000444541,-0.056560528,0.067856163,0.19216488301753998,0.5606581568717957,-0.017446779,0.074142151,-0.095955886,0.19300253689289093,0.003236428,-0.419283777,0.253277451,-0.587336063,0.4671395719051361,0.3600798547267914,0.27177006006240845,0.1149626299738884,0.22313211858272552,-0.100822158,0.2420806586742401,-0.209250495,-0.055558097,0.13819284737110138,0.4104415476322174,0.2613670527935028,0.090321891,0.028986932709813118,0.08057873,-0.460798383,0.18901580572128296,-0.320208848,0.19204039871692657,0.31642961502075195,-0.022850754,0.3763415515422821,-0.347121567,-0.305519104,-0.438061446,0.1325826644897461,-0.179790005,0.077158555,0.054920495,0.24377892911434174,-0.142921537,0.071790732,0.25407907366752625,0.188516766,0.24088667333126068,-0.01654087,0.058676984161138535,-0.116488457,-0.092092551,0.091587767,0.021381132304668427,0.357517272,-0.002503689,-0.38552469,0.044065908,-0.169844165,-0.082965188,-0.136416867,0.078241356,0.2173074185848236,-0.37277475,0.080893166,0.2543378174304962,-0.161750451,-0.22030735,0.095719524,-0.049952455,0.012364964932203293,-0.322398573,-0.099408254,0.17062444984912872,0.49691230058670044,0.2113911360502243,-0.231217995,0.357191801,-0.078604095,-0.215388551,-0.097748958,0.054998521,0.11075501143932343,-0.061282404,-0.131800681,-0.301952362,0.1953713297843933,-0.17586197,-0.053182438,-0.30196473,0.030812101438641548,-0.184427947,0.23522864282131195,0.25100117921829224,-0.350794137,-0.371654421,-0.127005875,-0.274283141,0.061560541,-0.075511992,0.10888057202100754,-0.017858621,0.31070053577423096,0.22537954151630402,0.092753746,-0.062935531,0.13674889504909515,-0.076540411,-0.081855722,0.038362246,0.19696904718875885,0.079742007,0.19768230617046356,0.20602555572986603,-0.152969897,-0.108655401
Co,0.25061410665512085,0.32090187072753906,-0.193293825,-0.247467086,0.19597835838794708,0.650875986,0.18500354886054993,0.19667398929595947,-0.144641846,0.2585228979587555,-0.02200485,-0.084044352,-0.058478244,-0.023536373,0.240885928,-0.146770447,-0.10715501,0.2765135169029236,0.332354873,0.014963484,-0.299844563,-0.420185834,0.256501704,-0.429276586,-0.07472761,-0.237270921,0.13683106005191803,0.12785258889198303,-0.037276048,0.2390120029449463,-0.532220244,0.088941753,0.011258131824433804,0.17231523990631104,-0.086597934,-0.143707693,-0.098077737,0.37693429,-0.289378881,0.4481114149093628,-0.306851417,0.099423811,-0.284271538,-0.361955196,-0.026327124,0.583622396,-0.419153452,-0.29277581,0.38264790177345276,0.17549270391464233,-0.126290694,0.1778975874185562,0.011441674083471298,0.18833965063095093,0.4530211389064789,0.1618318408727646,0.1777842491865158,-0.095062941,-0.036467053,-0.120392106,0.015502939000725746,0.054871954,-0.089796737,-0.108517461,0.018245723098516464,-0.300386608,-0.719071507,-0.240031645,0.1761934906244278,0.2707241475582123,0.21611721813678741,-0.10352274,0.085915975,0.10570334643125534,-0.258755535,-0.445411831,-0.446682662,-0.338914812,-0.356052667,0.2570699155330658,0.5216656923294067,0.2387193739414215,-0.156250238,-0.043534104,-0.213908195,0.22984084486961365,0.2637806236743927,0.2886156439781189,0.19825495779514313,0.22531764209270477,-0.090667978,0.3767492175102234,-0.16136539,-0.424373657,0.29833775758743286,-0.366934747,0.32143348455429077,0.4636334478855133,0.35800811648368835,0.3863372206687927,0.1406569927930832,-0.209737748,0.29205605387687683,-0.106359929,-0.133080408,-0.01680389,0.34455618262290955,0.21253040432929993,0.23198439180850983,0.19223658740520477,0.047248624,-0.501433671,0.33835646510124207,-0.518953443,0.4679870903491974,0.083071843,0.029423099011182785,0.44529396295547485,-0.390083641,-0.352066308,-0.408879399,0.17511741816997528,-0.072770163,-0.099179186,-0.019531948,0.3829958140850067,-0.234906197,-0.067815781,0.27580010890960693,0.16728602349758148,0.27079054713249207,0.19632630050182343,0.011567819863557816,-0.317889333,-0.001354082,-0.076384716,-0.055952396,0.37108075618743896,-0.26077646,-0.620946646,-0.044014506,-0.044724297,-0.163261816,-0.185802951,-0.24131161,-0.02855647,-0.405408621,0.032478056848049164,0.35293927788734436,-0.124486558,-0.192284033,0.33857545256614685,0.23823316395282745,-0.176749587,-0.383185953,-0.084935971,0.20342394709587097,0.41130417585372925,-0.057403151,-0.265021175,0.5116693377494812,-0.05356909,-0.332094073,0.000342434,-0.032494236,-0.01122646,0.024734763,0.009893772,-0.457885236,0.406617671,-0.014352298,-0.252090931,-0.300517619,0.09902855,-0.005581853,0.067911461,0.099560216,-0.306963623,-0.252981305,-0.31684798,-0.236273021,0.037340354174375534,-0.205769926,0.006102988,-0.013900562,0.42594364285469055,0.17046032845973969,0.006034757,0.044253834,0.14574934542179108,0.19282405078411102,0.032799058,0.021082311868667603,-0.105678603,0.12461702525615692,0.14574001729488373,0.2675921320915222,-0.303343236,-0.107265398
Ni,0.13194085657596588,0.29741451144218445,-0.113503948,-0.153388083,0.070581235,0.6238252520561218,-0.029539796,0.0518024,0.037689622,0.26281505823135376,-0.10232956,-0.161338732,-0.159773499,0.040520645678043365,0.011406592093408108,0.011796199716627598,-0.2467421,0.16627420485019684,0.297452837,0.12150894850492477,-0.098454095,-0.467727691,0.156962052,-0.314694107,0.074799135,-0.213295415,0.24270062148571014,0.059045311,0.090017669,0.16564856469631195,-0.210117236,0.060357951,-0.014762079,0.083479121,0.034961805,-0.10515257,-0.107628636,0.079949103,-0.431847394,0.4300367534160614,-0.116270646,0.3115813136100769,-0.138069645,-0.202571169,0.046045307,0.5496925115585327,-0.467720807,-0.215047166,0.5948904752731323,0.19186878204345703,-0.001965016,0.22245897352695465,0.001177784,0.13314376771450043,0.5873820185661316,0.15949122607707977,0.20460864901542664,-0.290559381,-0.101478681,-0.15041849,0.13819175958633423,0.022454616,0.060148131,-0.334625274,0.070527621,-0.189864963,-0.52211529,-0.19253321,0.10461348295211792,0.3879103362560272,0.28895118832588196,-0.078524031,0.14709118008613586,-0.064298809,-0.13830331,-0.383225381,-0.417081475,-0.304216594,-0.186543316,0.18276865780353546,0.3491421937942505,0.2209005355834961,-0.078300178,-0.122767858,-0.093408279,0.1427537202835083,0.24602393805980682,0.34022754430770874,0.18715815246105194,0.2917138636112213,-0.039394423,0.19842982292175293,-0.122118153,-0.485294104,0.4592909812927246,-0.173101828,0.37749671936035156,0.4328552782535553,0.19231967628002167,0.14326144754886627,0.2025044560432434,-0.272287399,0.016475927084684372,-0.126400769,-0.140379041,-0.130042732,0.2398214042186737,0.092956081,-0.01228426,0.16543686389923096,-0.265150845,-0.597348392,-0.100944683,-0.385660052,0.261792928,0.012888914905488491,0.049061485,0.39591917395591736,-0.303726137,-0.187195167,-0.488098204,0.2718923091888428,-0.104285896,0.004087987,-0.055977844,0.24222420156002045,-0.245466501,0.016101287677884102,0.43328583240509033,0.15396274626255035,0.28775063157081604,0.1861066073179245,0.16089163720607758,-0.276304662,0.015416951850056648,-0.211132258,-0.015440799,0.4085518717765808,0.12727759778499603,-0.459531784,0.007945772,-0.156255066,-0.002786725,-0.006651764,-0.198376,-0.029194046,-0.353374928,0.12298310548067093,0.21435335278511047,-0.103681393,-0.186249271,0.2642120122909546,0.057572510093450546,-0.008831524,-0.543732524,-0.025721038,0.018335754051804543,0.21851229667663574,0.201339453,0.042435534,0.5423370599746704,-0.053260349,-0.148771271,-0.113602392,0.23094208538532257,-0.036418967,-0.038479451,-0.074152641,-0.458857894,0.4843372702598572,0.032649882,-0.009610536,-0.195050418,0.2140931487083435,-0.195669636,0.13017556071281433,0.035294849425554276,-0.461796075,-0.363455653,-0.153612554,-0.428553551,-0.076717846,-0.125441566,-0.022928474,-0.284933299,0.26856085658073425,0.11487681418657303,-0.026420942,-0.019652499,-0.007023245,0.10843667387962341,-0.036166172,-0.091357805,0.031449079513549805,0.113182932,0.19906282424926758,0.4279854893684387,-0.22260581,0.003308978
Cu,0.11142301559448242,0.095837541,-0.110611923,-0.068995565,-0.070204429,0.5032855868339539,0.037207518,-0.060459513,-0.045315068,0.26118960976600647,-0.127605617,-0.23116003,-0.25963217,0.018092365935444832,0.1429385393857956,-0.049422137,-0.202861279,0.3319684565067291,0.4472312331199646,-0.000913539,-0.005575245,-0.265763432,0.10721675306558609,-0.262259662,-0.023569981,-0.53237468,0.379398376,0.14746592938899994,0.073361181,0.067649096,0.16225887835025787,0.075035773,-0.097252004,0.029487221,-0.123722076,-0.218699083,-0.177958965,0.12823694944381714,-0.638419211,0.4301246404647827,-0.003912959,-0.092170306,-0.142344072,-0.062545106,0.011466982,0.43407976627349854,-0.204097837,-0.392868519,0.3562585711479187,0.013242790475487709,0.036341454833745956,0.14166933298110962,0.19945605099201202,0.14122149348258972,0.36500027775764465,0.18249200284481049,-0.00660062,-0.185724631,-0.130299121,0.079644091,0.19348089396953583,0.011271744035184383,-0.066179618,-0.030525023,0.26991698145866394,-0.046433613,-0.416174144,-0.227686092,0.22817696630954742,0.2148219496011734,0.099561684,-0.15307276,0.094172969,-0.382387906,-0.39713338,-0.375618696,-0.191463813,-0.192175984,-0.335882068,-0.03332055,0.18324363231658936,-0.255269617,-0.196690783,-0.262279153,-0.022031279,0.037169646471738815,0.1927732527256012,0.45477205514907837,0.085575096,0.11344153434038162,-0.009458173,0.3320096433162689,0.10373511165380478,-0.32205528,0.20807255804538727,-0.302938551,0.26687800884246826,0.3480585813522339,0.15607237815856934,0.2707744836807251,0.3469439744949341,-0.324177235,0.18468604981899261,-0.256206274,-0.200760365,-0.145322859,0.3155513107776642,0.20577195286750793,0.17465388774871826,-0.007747428,-0.325321376,-0.673217893,0.073923297,-0.415445387,0.48572638630867004,0.004706521,0.094964929,0.30617958307266235,-0.004678629,-0.325794637,-0.521811962,0.3690015971660614,-0.187233493,-0.081104927,-0.216098338,0.26771464943885803,-0.150259331,0.14068421721458435,0.153919518,-0.129466742,0.16322919726371765,0.11670155823230743,0.13850075006484985,-0.014071907,-0.069106765,-0.209611759,0.16546092927455902,0.3856978118419647,-0.0816634,-0.32100898,-0.057024334,-0.311732948,0.19422800838947296,0.066162467,-0.237596914,0.28020066022872925,-0.532879889,0.28804531693458557,0.31639590859413147,-0.077107929,-0.203271359,0.2951138913631439,0.1133526936173439,-0.152307227,-0.322880894,-0.062796138,0.12574316561222076,0.22172380983829498,0.2312864065170288,0.091163635,0.250943661,-0.089583315,-0.223744646,-0.041765708,0.17765092849731445,-0.153708741,-0.229503989,-0.142416894,-0.306923687,0.4597753584384918,0.074041843,-0.075298563,-0.235829622,0.17806555330753326,-0.328336746,-0.047629818,0.19958627223968506,-0.210850254,-0.631179333,-0.201581314,-0.247204676,0.007531771,0.003376543,0.2088724672794342,-0.082491882,0.26600131392478943,-0.107929938,0.081977837,-0.015451373,-0.020719463,0.18477419018745422,-0.028007777,0.052257098257541656,0.052716624,0.22542031109333038,0.20703209936618805,0.4133628308773041,-0.320553839,0.054848358035087585
Zn,0.37538832426071167,0.1458548903465271,-0.06157789,-0.253457606,-0.132448927,0.5003033876419067,0.093299247,-0.113961034,-0.360487014,0.11959762126207352,-0.330741376,-0.370346814,-0.202073261,-0.216719121,0.063735396,-0.192731768,-0.051469963,0.10257258266210556,0.33541432,-0.135753751,0.073197603,-0.183248699,0.3372225761413574,-0.21466662,-0.002156039,-0.544371426,0.20906929671764374,0.14105428755283356,0.079377815,0.14880932867527008,0.11470536142587662,0.16220155358314514,-0.214252904,-0.068349689,0.013121277093887329,-0.070973881,0.003247141,0.39910057187080383,-0.541153193,0.5077657699584961,-0.187714875,-0.159723371,-0.330180258,-0.494231343,-0.005470834,0.3625869154930115,-0.256915301,-0.688218474,0.39521557092666626,0.082959041,0.2484317123889923,-0.02298647,0.3133631646633148,0.21009491384029388,0.4801747500896454,0.079939932,-0.098990247,-0.259785205,-0.034551099,0.10314176976680756,0.035030283,-0.091862857,-0.343815804,-0.293645203,0.46064597368240356,0.051224686205387115,-0.282157898,-0.269157141,0.4071248173713684,0.44374996423721313,0.097440138,-0.32711938,0.10831794887781143,-0.157059699,-0.319296956,-0.378398627,-0.383767456,-0.302063286,-0.252035856,0.14399605989456177,0.058903992,0.082315385,-0.491693169,-0.014786763,0.035426397,0.1668895184993744,0.15069463849067688,0.44457316398620605,-0.101091698,-0.060210563,0.006015016,0.3389314115047455,0.22320404648780823,-0.378082484,0.16254937648773193,-0.092028514,-0.001643323,0.17143812775611877,0.12752655148506165,0.36471304297447205,0.4568100869655609,-0.264180869,0.3182567358016968,0.019719126,0.079352014,0.004482204,0.5638464093208313,0.17786924540996552,0.08908461,-0.000914036,-0.081261031,-0.687278807,0.05762681,-0.191225871,0.7065446972846985,0.072190836,0.026526112109422684,0.416483611,-0.635922551,-0.35975942,-0.598751009,0.15492428839206696,-0.021202764,0.03305719,0.15229004621505737,0.17689262330532074,-0.08063022,0.014301770366728306,0.13209614157676697,0.24109810590744019,0.26252445578575134,0.31825512647628784,0.14772826433181763,0.010365538,-0.303664148,-0.330514044,0.012481780722737312,0.16111664474010468,-0.070326529,-0.262294829,-0.267094493,-0.330147952,-0.078912817,0.087119721,-0.223467931,-0.019741766,-0.417732477,0.4275505542755127,0.12845391035079956,-0.009723078,-0.308061242,0.15888382494449615,-0.03741134,-0.045321267,-0.154604703,-0.179045826,0.3370644152164459,0.17076507210731506,0.28870925307273865,0.40147969126701355,0.25076764822006226,-0.329541773,-0.118760988,0.028219811618328094,0.12471266090869904,-0.045011394,-0.208101064,-0.054965865,-0.45537293,0.6691914200782776,0.032551553,-0.214257956,-0.158988178,-0.063242748,-0.398582399,0.22417069971561432,0.2001160830259323,-0.23006326,-0.589769125,0.00624685,-0.392771363,0.080928735,0.015683081,0.1791694462299347,0.13935913145542145,0.12963563203811646,-0.038855832,0.013144523836672306,0.13548442721366882,0.060007408,0.043549418449401855,0.016193320974707603,-0.068503574,-0.14366591,-0.045812923,0.20665641129016876,0.5989876985549927,-0.255845577,0.17085467278957367
Ga,0.074643247,0.36270231008529663,0.2135734260082245,-0.322246015,0.087887235,0.708800733,0.009010817,-0.102810763,-0.458664715,0.16988913714885712,-0.304711938,-0.156278819,-0.5830158,-0.089036219,0.24339210987091064,0.10339116305112839,-0.085187696,-0.079910308,0.37142515182495117,-0.014018443,0.010560038,0.2912898361682892,0.2755022644996643,-0.274279803,-0.317269117,0.012462536804378033,0.7454109787940979,0.18033289909362793,-0.003485971,0.069880888,-0.009908412,0.2895178198814392,-0.199692741,0.021979297,-0.446837455,-0.314081162,-0.444296628,0.31007033586502075,-0.155195966,0.10961326956748962,-0.032729805,-0.14003168,-0.023990313,0.25683921575546265,0.300688773,-0.053078663,0.20195788145065308,-0.567748725,0.5182491540908813,-0.319703341,0.17547407746315002,0.21379299461841583,0.2965708374977112,0.075069949,0.539661169,0.3687601387500763,-0.095449023,-0.23591575,-0.361991405,-0.080458127,-0.252073616,-0.137351245,-0.016480878,-0.329444975,0.4826555550098419,-0.117704533,-0.279512048,-0.39611575,0.048745368,0.10912778228521347,0.10873253643512726,-0.431787729,0.21551647782325745,0.2557990252971649,-0.309394866,-0.226390541,-0.412795514,-0.127408922,0.18579499423503876,-0.119349562,0.4349808096885681,0.3789966106414795,0.002227579,0.303710938,0.2547750771045685,-0.106755339,0.054531444,0.3485832214355469,-0.181836441,-0.127000436,-0.202177688,0.20325098931789398,0.13449573516845703,-0.520256937,0.11319544911384583,0.16439886391162872,-0.203000814,0.48511943221092224,0.4737955629825592,0.3728317320346832,0.3780297040939331,0.074822903,0.095659122,0.076474905,-0.221995831,-0.143410146,0.6735600233078003,-0.01382559,-0.003859636,-0.020515013,0.081432834,-0.367644638,0.17318592965602875,-0.12814869,0.6488295793533325,-0.013088078,0.3395322263240814,-0.237549886,-0.454387069,-0.451465845,-0.779933691,-0.003432518,-0.402999192,0.2299404740333557,0.10072103887796402,0.10761307924985886,0.027369741,0.3132384419441223,0.15267205238342285,0.044545356184244156,0.016821173951029778,0.3240202069282532,-0.148919642,0.14297756552696228,-0.142539963,-0.076629847,0.34790876507759094,0.19920037686824799,-0.298143774,-0.220860451,-0.27836737,-0.396386802,-0.163143516,-0.524877906,-0.07535246,-0.251447201,-0.207218036,0.23157595098018646,0.2665124535560608,0.24149584770202637,-0.15712133,0.3218448758125305,0.009264243,0.1549273282289505,0.1513950079679489,-0.183215722,0.29091331362724304,0.26847144961357117,0.3288903534412384,-0.229733393,0.8572295904159546,-0.076389231,-0.400507718,0.5487468838691711,-0.47089082,-0.090182409,-0.216479793,-0.069197841,-0.291779429,0.2196410447359085,0.19096623361110687,-0.15855141,0.12993821501731873,-0.011076715,-0.375738442,0.33722496032714844,0.1341000497341156,-0.082301743,-0.206656024,0.068424486,-0.423639119,0.1690598428249359,-0.06123719,0.097491868,-0.009115774,-0.236552149,0.17118409276008606,-0.123198688,-0.187564984,0.21714283525943756,-0.000251799,-0.163425624,-0.023668084,0.087337822,-0.032854315,-0.074585557,0.7575989365577698,0.056234449,0.025838054716587067
Ge,0.10525941848754883,0.18460097908973694,0.14753244817256927,-0.087990768,0.11314384639263153,0.9381937980651855,-0.260965109,0.32182610034942627,-0.142762125,-0.120292105,-0.641905904,-0.120416619,-0.307731926,-0.119406678,0.40679121017456055,0.1893584281206131,-0.522508264,0.12344464659690857,0.035677224,0.24935396015644073,-0.187153697,-0.085375704,0.33381763100624084,-0.016683409,-0.04941171,0.031157549,0.3260662853717804,0.2761741578578949,-0.029981006,0.080324471,-0.331834346,-0.303569019,0.20047993957996368,-0.3911843,-0.183157846,-0.098202839,-0.310156524,0.21692538261413574,-0.348444074,-0.094614506,-0.064069875,-0.320144683,-0.289353579,0.055111334,0.15164318680763245,-0.067156561,0.21785317361354828,-0.792461276,0.024354949593544006,-0.350692242,0.2621821463108063,0.12704259157180786,0.23701301217079163,-0.226990834,0.3587839901447296,-0.154180661,-0.07246767,-0.133338526,-0.032926939,0.1901463121175766,-0.122279257,-0.222932234,0.14432570338249207,-0.261288583,0.14766858518123627,-0.202473581,-0.218208343,-0.418532521,-0.018359104,0.1723453849554062,0.24913813173770905,-0.211995602,0.445648193,0.22314415872097015,0.18212664127349854,-0.217718437,-0.814505517,0.26107388734817505,-0.271510899,-0.529259741,0.28262776136398315,0.084366597,-0.098742023,0.22574317455291748,-0.023904696,-0.026569778,0.3442419469356537,0.515399694,0.012211797758936882,0.022350956,-0.393359572,-0.233861864,0.2761009931564331,0.010679101571440697,0.3794739544391632,-0.287129998,-0.174108237,0.16229206323623657,0.40980157256126404,0.5510268807411194,0.6554939150810242,-0.119764112,-0.110179476,0.099481434,-0.269944251,-0.151865214,0.6082502007484436,0.064957142,0.10437841713428497,0.035693169,-0.201445356,-0.812847197,0.42052745819091797,0.009442855,0.20327696204185486,-0.410539418,-0.062705249,0.1090850681066513,-0.181159511,-0.252517819,-0.561457574,-0.05552958,-0.259881347,0.1346016675233841,-0.666286528,0.6164209842681885,-0.04938478,0.23063163459300995,-0.108008906,-0.145325586,0.10340237617492676,0.16237987577915192,0.30562734603881836,0.6021922826766968,-0.113056459,0.044099543,-0.005174493,0.15109743177890778,-0.096762039,-0.369759262,-0.013284686,-0.030053586,-0.220502004,-0.555923045,0.095530711,0.082691841,-0.460438818,0.14102399349212646,0.3271755576133728,-0.016194025,-0.287069023,0.3870134651660919,-0.288671166,-0.038556118,-0.052310128,-0.010587153,0.29975321888923645,0.028109232,0.18420353531837463,-0.378776014,0.33015838265419006,-0.290354937,0.014413498342037201,0.15943364799022675,0.011705073527991772,0.018936356529593468,-0.052951384,-0.20599772,-0.182123795,-0.004952268,0.034956582,0.002879434,-0.03798319,0.13080011308193207,-0.631436646,0.1060980036854744,0.4993964731693268,-0.237015322,-0.138749003,-0.118701495,-0.335914701,0.12039714306592941,-0.117566012,0.064708017,-0.324358761,-0.279909134,0.25040099024772644,-0.112269297,0.25491592288017273,-0.230663925,-0.050300319,0.1156829372048378,-0.059592396,0.15063722431659698,-0.060210139,-0.16649954,0.042164464,-0.088779956,0.12066492438316345
